//Numpy array shape [48, 144]
//Min -1.166873455048
//Max 0.925804376602
//Number of zeros 0

#ifndef W11_H_
#define W11_H_

#ifndef __SYNTHESIS__
model_default_t w11[6912];
#else
model_default_t w11[6912] = {0.0094308248, -0.0557235479, -0.0663280487, 0.1079942808, 0.0691882297, -0.0242551696, -0.0900880024, -0.0148576023, 0.0630835369, -0.0143423323, -0.0336354338, 0.1847135723, 0.0301913936, -0.0497330427, 0.1319544017, 0.0885454565, 0.0157911666, 0.1516237557, 0.0962783620, 0.1580706984, -0.0285796076, -0.0200613104, -0.0075891088, -0.0838042498, 0.1047483757, 0.1012073234, -0.1300833970, -0.0369151533, 0.0047428138, 0.0032514050, -0.0341982469, 0.0663530380, -0.0121292751, 0.1501676440, 0.0897531733, -0.0503535680, 0.0746226832, 0.0355250947, 0.0192251746, 0.2071143389, 0.1105405837, -0.0260022376, 0.1938752383, 0.1110015213, 0.0732977316, 0.1246568635, -0.1134228185, -0.0885050893, -0.1400789171, -0.0834938884, 0.0096176136, -0.2452235669, 0.1103546694, 0.0641556680, -0.0765899867, 0.0044950978, -0.1062678173, -0.0347946025, -0.0680729002, -0.1358675808, 0.2654562294, 0.3984530568, -0.1043460965, 0.0040665991, -0.0176607296, 0.0780116469, 0.0169314574, 0.0462771133, -0.0628433898, -0.0347189605, 0.1474895477, 0.1425640583, -0.0267737973, 0.1011297554, 0.0680295452, -0.0237207655, 0.0174415987, 0.3136759400, 0.0161495898, 0.4277487099, 0.1938758343, -0.0372145884, -0.0397745147, -0.0933575034, 0.0259542763, -0.0894783512, -0.0499531180, -0.0344174244, 0.0472255647, 0.0186777953, -0.0788703337, -0.1062467173, -0.5445922613, 0.0130518069, 0.0468342938, -0.1063859910, 0.1142135337, 0.0885878429, 0.0078864675, 0.0385357477, 0.0616173670, -0.0257674269, 0.0137705840, -0.0791881606, -0.0787689015, 0.6120112538, 0.5707331300, 0.3845632374, 0.0458305366, -0.0946936309, -0.1097637042, 0.0490360148, 0.0342496261, 0.0053100283, 0.1863291413, 0.0770282000, 0.2242904305, 0.0111306868, -0.0786205530, -0.0638895854, -0.0000042513, 0.0130793797, 0.0253794715, 0.2980511487, 0.2418251932, 0.1137105599, -0.1980795264, -0.2039507776, -0.1978230625, -0.0882261842, 0.0797606260, -0.0799438506, -0.0288685728, -0.0449612215, -0.0362772346, -0.0680706650, -0.0102217924, -0.0336971171, -0.0098844320, 0.1591544300, 0.0770261064, -0.1175951287, 0.0381209031, 0.0221013557, -0.0603152625, 0.0244002566, -0.0177468155, -0.0874241516, -0.0529153422, 0.1265295297, 0.0097284848, -0.0526312925, 0.0307521876, -0.0955022573, 0.0605223700, 0.1266498864, -0.1018538177, -0.0051722256, -0.0157859214, -0.1005883291, -0.0241815317, 0.1056523025, 0.0675262138, 0.0701434985, 0.1094937995, 0.0298496448, 0.0200325064, -0.0023813797, -0.0533693843, 0.1277033687, 0.1334491968, -0.0050210389, 0.0898165479, 0.0356940590, 0.0099009052, 0.0510106422, 0.0838942006, 0.0206775460, 0.1587949991, -0.0186430793, 0.0688474923, 0.1329992115, 0.1191885397, 0.1440538615, 0.0946446359, -0.1108718365, 0.0201534666, -0.0191543922, -0.0290135033, -0.0195387099, -0.1042155623, -0.0974356309, -0.0215691216, -0.0385179035, 0.0222950801, 0.0007088952, -0.0529689752, 0.0256827343, 0.0652943403, 0.1196945831, 0.1462491155, -0.0411095433, 0.0465491042, 0.2735533714, -0.0750275701, -0.3469742537, 0.3845677674, 0.0198110007, -0.0220651850, 0.0845603645, 0.0914346799, -0.0312810689, 0.0866856501, -0.0290316734, -0.0717798397, -0.1268595159, -0.0454010814, 0.0354169086, -0.0521221571, -0.0114983041, 0.0793945789, 0.0824311897, 0.3731303811, 0.3345335424, 0.0037669314, 0.1150515452, -0.0841893181, 0.0136102336, 0.1318439245, -0.0021272576, -0.0062906458, -0.0366226472, -0.0981451049, -0.0509825349, -0.0958684310, 0.0561358854, 0.0736703575, -0.0065359483, 0.0155874742, 0.0542726964, -0.0427466817, -0.0978818536, -0.0098329317, 0.0256532375, 0.0175769683, 0.0850976929, 0.0182598811, -0.0864594281, 0.0431365967, 0.0487502366, 0.0769245550, -0.3502477109, -0.0469880030, -0.0241097771, -0.0641083121, -0.0307845622, 0.0649267733, 0.0292659365, -0.0733963475, 0.0658101663, 0.1085866317, 0.0286788307, 0.0279062465, 0.0175765604, -0.0912664011, 0.0488540977, 0.0456653535, 0.0543085225, -0.0633927137, -0.2664417326, 0.2207993567, -0.0132070174, -0.0493222438, 0.0711833909, -0.0275755841, 0.0437613800, -0.0055095297, 0.0118221194, 0.0577967465, -0.0119636003, -0.0524351411, -0.1476708502, 0.0636473969, -0.0586950257, -0.0536977351, 0.0191073306, -0.0631996989, -0.0019771832, -0.0036043921, -0.0735616907, -0.0910500959, 0.0309572369, -0.0317420699, -0.0012694197, 0.1039352641, 0.0195654631, -0.0821850374, 0.1174002215, 0.0738598853, -0.1341944784, 0.0398046263, -0.0278686713, -0.0713944733, 0.0976630226, 0.0275584552, 0.0466609038, -0.1429129243, -0.0649882555, 0.1112166420, -0.0771567747, 0.0161274243, -0.0093995910, 0.0028294388, -0.0143623371, -0.0217682905, 0.0424041711, 0.0288637858, -0.0973366797, 0.0456954502, -0.0098366728, 0.0215430371, -0.1241485178, 0.0094719026, 0.1406573653, 0.0174565222, 0.0847782567, -0.0830624551, 0.1311555356, 0.0505322888, -0.1189045757, 0.1148366183, 0.1151665375, -0.0108306026, -0.0532654338, 0.0141439456, 0.0717432126, -0.0877057463, -0.0159885418, 0.1092764065, 0.0374136791, 0.0657070950, 0.0619630143, 0.0160351247, -0.0878919736, -0.1378849000, -0.0225811712, -0.0391223356, -0.0921275839, 0.1003103405, -0.0648172200, -0.2973700166, 0.0970776528, 0.1172451377, -0.0317262001, 0.1023372114, 0.0276499819, -0.0856542140, -0.1285780221, 0.0766773522, 0.0028244515, 0.0344819464, 0.1363330781, 0.1237298697, 0.0039530620, -0.1109166145, 0.0282126628, -0.1339640021, 0.1661105007, 0.0155087477, 0.0523798652, 0.0185222961, -0.0570167787, 0.1647914648, 0.1319704503, 0.0248175282, 0.0967935547, 0.0396086499, 0.0628555119, 0.0517417565, -0.2170434296, -0.2036250532, 0.0597615279, -0.0047301147, -0.1108550131, 0.1586447358, 0.1196353137, -0.0299221259, 0.1258326322, 0.0799657404, 0.0567512996, 0.1050653756, 0.0467215963, 0.0442426763, 0.2871924341, 0.2506966889, 0.0471095107, 0.0797278062, 0.0322656929, 0.0148528907, 0.1418949068, 0.1218032315, -0.0078555644, 0.1721234471, 0.0057798461, 0.1180258244, 0.0199610963, 0.0794083029, -0.0212428626, 0.0811124742, 0.0337882601, 0.0425646976, 0.7473614216, 0.0018659040, 0.1034220904, -0.0802499652, 0.1761526614, 0.0149204498, 0.0632820129, 0.0940101370, -0.0170148630, 0.0741033331, -0.0358012803, -0.0356487222, 0.1261729300, 0.0915256664, 0.0766146779, -0.0141118225, 0.0029055816, 0.1148042381, -0.0496324115, 0.1623938233, 0.1035759002, 0.0048140069, 0.0794173405, -0.0009732599, 0.1377454102, 0.0083186347, 0.0909589007, 0.0607155114, 0.0076571675, -0.0528796986, 0.0023783899, -0.0109223081, -0.0745303184, 0.0058393660, 0.0030968343, -0.0043023555, -0.1442020983, 0.0123431049, -0.0587651171, -0.0399754308, 0.1172719672, -0.0429440662, -0.0665353984, 0.0085464101, -0.0090974504, -0.0900731012, 0.0360398218, -0.0916300640, -0.0449196957, 0.0445397496, 0.0282756388, 0.0254056808, -0.0582129918, 0.0704606622, 0.0725560635, -0.0354389176, -0.0758919343, -0.0108668758, 0.0174701195, -0.0018805196, 0.0471494384, 0.0687420815, 0.0875814632, -0.0977803022, 0.0713820830, -0.0028276069, -0.1597836465, 0.1706275940, 0.0788189992, -0.1142157540, -0.0590539649, -0.0136540039, -0.0408180133, -0.0115635404, -0.0631636456, 0.0693262592, -0.0502695814, -0.0289807227, -0.0861729383, -0.1823285520, -0.0936517790, 0.0935147703, -0.1871156245, -0.2211460322, -0.0522640273, -0.0356613919, -0.0693125203, 0.0477271378, -0.0042983973, 0.0622259043, 0.1648854464, -0.0712653026, -0.0919096470, 0.0031391359, -0.0607162826, 0.0465009958, -0.0463512912, 0.2715531290, 0.0348318256, 0.1988064647, 0.0939499438, 0.0677646622, 0.2903329432, 0.0772339031, -0.0973600894, 0.1352540404, -0.0400413089, -0.0325027928, 0.0893957168, 0.1226360127, 0.0117269410, 0.1811138093, -0.1019942909, 0.0458669923, -0.0346181020, 0.0213588830, 0.0737799332, 0.0487593487, -0.0780866742, -0.0957939327, 0.0432429425, 0.0169671439, 0.0061190794, -0.0726331100, -0.1004429460, -0.0121772336, -0.0195655711, 0.1217287928, 0.1994680464, 0.0068167639, -0.0257499870, 0.0366313271, -0.0565326959, 0.0095270891, -0.0846552327, 0.0030303702, 0.0420648791, -0.2175351679, 0.0668782443, -0.0029414154, 0.0078390324, -0.1066835895, 0.0429995619, -0.0274940003, -0.3246507049, -0.0466087610, 0.0377510339, 0.0257679801, -0.0197710618, 0.0631504357, -0.0388647765, 0.0288650859, -0.0340851098, -0.0818551928, -0.0410268381, -0.0768684819, -0.0769170597, 0.0422146246, -0.0301386099, 0.0582901090, 0.0418548025, 0.0539642721, 0.1032705009, -0.0106043397, 0.0814397410, 0.0069504119, 0.0077558034, -0.0831918344, -0.0117714209, -0.0117452508, -0.0226485170, -0.2438353449, -0.0651797131, 0.0262641944, -0.0548258610, -0.0715033263, 0.1064413488, -0.0534717999, -0.0108498801, -0.0432451926, 0.0587919801, -0.0345552713, 0.0375695787, 0.1761716604, 0.0018098236, -0.0863406807, 0.1172812730, 0.1367738843, -0.0029795389, 0.0611733124, 0.0536721162, 0.0263589956, -0.0081027662, 0.0422298275, 0.0979448408, -0.0379112214, 0.0332761258, 0.0717344508, 0.1403361857, 0.1310679615, -0.0185020603, 0.0663926080, 0.1188381612, 0.0241898596, 0.0566373058, 0.0626167729, 0.0054124296, 0.0506085344, 0.0376200043, 0.0714820251, 0.0037805072, 0.0164632872, 0.0363498926, 0.0862927213, -0.0624847040, -0.0090393936, 0.0310458578, -0.1428388953, 0.0113491593, 0.0485932529, 0.0792228729, 0.0786315054, -0.0126366811, 0.0540769361, 0.0895729288, -0.0445174277, 0.0842483193, 0.0115003409, 0.0021011285, -0.0247440804, -0.0196269173, -0.1030983329, 0.0475767702, 0.0380204879, 0.0333275236, 0.0184793063, -0.0625390559, 0.0754204914, 0.0775137395, -0.0039934819, 0.2008241117, 0.0427003056, 0.0333898887, 0.1386110783, 0.1706693321, 0.0473471694, -0.0939314961, -0.0395757183, -0.0288744513, 0.0169992689, -0.0439543389, 0.0277611632, -0.0417179987, -0.0188364871, 0.0092177568, -0.1369239688, -0.0537123047, -0.0416900665, -0.0251955166, 0.0382417031, -0.0068326928, -0.1282903701, -0.0036334270, 0.0192447864, 0.0245751850, 0.0496725217, 0.0108018648, 0.0438245051, 0.0264370777, 0.0736949518, 0.1793923080, 0.1784735471, 0.1798831969, -0.1566589028, 0.0068613514, 0.0721760392, -0.0837811381, 0.0419325829, -0.0211624727, 0.0538018458, -0.0608233884, 0.0568517186, 0.0515684634, 0.0561753623, 0.0702882782, 0.0389631018, 0.0202003159, 0.0664227083, 0.0488284901, -0.0451612957, 0.0226368941, 0.0430842452, -0.0116108218, -0.1150844842, -0.0092016570, -0.0147155877, -0.0044380440, 0.0077300658, -0.0566560626, 0.0001034462, -0.0688077062, 0.0496397503, -0.0212674215, -0.0428700559, -0.1016747281, -0.0406874195, 0.0569329746, -0.1131258979, 0.0197586231, 0.0820349157, 0.0358133800, 0.0932839364, -0.1007408947, 0.0585241504, 0.0290646870, -0.0872851759, -0.0961150900, 0.0520963818, -0.0069785663, 0.0467099547, 0.0550187640, -0.0333954431, -0.0611206442, 0.1387799531, -0.1275409013, 0.1771942228, 0.1850506812, 0.1269715130, 0.1331538856, 0.0945881009, 0.0289586838, 0.1637134999, -0.0110806888, 0.1974056810, 0.1052766591, 0.0773557127, -0.1187729612, -0.0568229221, -0.0337336026, -0.0840974376, -0.0250639655, 0.0732656196, -0.1280250847, -0.0008121136, 0.0161461905, 0.0251356512, -0.0207479484, -0.1012294516, 0.0274806190, 0.0619614646, -0.0575304031, -0.0786381736, 0.0100698266, 0.0007045916, -0.0299561396, 0.0799543932, -0.0854872018, -0.1130015329, 0.1016633958, -0.1202265993, 0.0564253889, -0.0911051184, -0.1499777585, -0.0116940793, 0.0021644842, 0.2180004418, -0.0288657025, 0.0351483524, 0.4152894914, -0.0976150855, 0.0222580414, 0.7682153583, -0.0281791817, -0.0905079916, -0.0149355363, -0.0053446679, 0.0136488667, -0.0533330180, -0.1386528760, -0.0479682200, -0.0089940187, 0.0746894702, -0.0318818726, 0.0283771176, 0.1160169914, 0.0364032127, -0.0894284472, 0.3216884434, 0.1359778941, 0.1339248717, 0.0449644998, 0.0084693823, -0.0103658568, -0.0541212633, 0.0199334119, 0.1302145422, -0.0479232296, 0.0526578464, 0.2611415386, -0.1681016237, -0.0506285988, 0.0271746349, -0.1269021481, 0.0450644679, -0.0574858971, -0.1626542956, 0.0676731691, 0.0428340733, -0.0621392019, -0.0763429925, -0.0416562147, 0.0816788748, -0.0283523109, 0.1195501834, 0.1702860594, 0.1429898441, 0.0421488583, -0.0729229525, 0.0474773943, 0.0073459768, -0.0188295450, -0.0700403228, -0.0506601557, -0.1558474898, 0.0306712668, -0.0019549727, -0.0307448041, -0.0885739997, -0.0521661416, 0.0385838486, 0.0162824094, -0.0353283137, -0.4184227884, 0.0087529169, -0.0473455340, 0.0608120896, 0.0178347956, -0.0920434594, -0.1406358182, -0.0981837735, -0.0060179108, -0.0518467464, -0.0915795639, -0.0536804534, -0.0023735620, 0.1049114987, -0.0855151340, -0.0393371955, 0.1677500308, -0.1231592074, 0.1570975482, -0.1906707287, -0.0878685489, 0.0704970360, 0.0254355017, 0.0418346711, 0.0144240754, 0.0082704760, 0.0749465823, 0.0593242981, 0.0701134950, 0.0068496005, -0.0821004212, 0.0672469586, -0.0461113006, 0.0238009840, 0.0770081207, -0.0243917257, -0.0367770940, -0.0633692369, 0.0540313907, -0.0578074120, -0.0815105662, -0.0544719696, -0.0411022119, -0.0601452813, -0.0257430635, -0.0204000156, 0.0067469864, -0.0091102850, 0.0413304083, 0.0209884699, -0.0117907794, -0.0321438946, -0.0508098900, -0.0145619093, 0.0249074325, -0.0390942059, -0.0634196401, 0.0593357757, -0.0565030500, -0.0507682525, -0.0454014130, 0.0524568632, -0.0004777575, 0.0231533963, -0.0061715124, -0.0776509196, -0.0120768007, 0.0249007549, -0.0622652248, -0.0670783818, -0.0615406223, 0.0581741594, -0.0305147581, 0.0583045036, -0.0398552530, 0.0377212577, 0.0176238492, -0.0403296500, 0.0355567820, -0.0142926490, -0.0358663946, -0.0863226652, -0.0356221199, -0.0742038041, 0.0241648722, 0.0695926845, 0.0299870986, -0.0861294344, -0.0648356006, 0.0174570922, 0.0164500326, 0.0679310411, 0.0162952356, 0.0306424499, 0.0363058709, 0.0064003081, -0.0198447797, -0.0079543265, 0.0584496818, -0.0015039621, 0.0434443280, -0.0417543389, -0.0512165092, -0.0273019075, -0.0053390316, 0.0343167409, -0.0137409531, -0.0780414492, -0.0462381355, -0.0125024086, 0.0444198959, -0.0209228266, -0.0334440209, -0.0273674745, -0.0580881648, -0.0689070374, -0.0580480769, -0.0491812713, -0.0140969604, 0.0015113520, -0.0083274320, -0.0517934188, -0.0350799337, -0.0823993534, 0.0200825781, -0.0705543011, 0.0551052578, 0.0161542147, 0.0329101644, 0.0622216351, -0.0131410584, -0.0027403040, -0.0662330240, -0.0193762351, 0.0606440902, -0.0423517711, 0.0673964620, -0.0688359141, 0.0332088880, 0.0513745770, 0.0606225356, -0.0020577761, 0.0441632494, 0.0690111518, -0.0553392582, 0.0733457431, -0.0513304025, -0.0460361205, 0.0142244315, 0.0719798431, -0.0835676938, -0.0802804902, -0.0180686805, 0.0635117590, -0.0232557859, -0.0457050540, -0.0287227090, -0.0423886254, -0.0613216199, -0.0552136041, -0.0845551491, -0.0712868571, -0.0003914139, 0.0134356366, -0.0585250966, -0.0483554304, 0.0781770945, -0.0207208954, -0.0217055678, 0.0388137698, 0.0445380956, -0.0635934845, 0.0401318856, 0.0568875149, -0.0705089420, 0.0871433988, -0.0071826954, -0.0491857305, 0.0800902247, -0.0412262268, -0.0778397471, 0.0181357637, 0.0605140105, 0.0770333707, 0.1324264556, 0.0385613404, 0.0892852321, 0.0397902019, 0.0960597545, 0.0737313405, 0.1631958485, 0.0038079096, 0.0544185825, -0.0336320400, 0.0264341589, 0.0852150694, -0.0176212639, 0.1064480171, 0.0013251172, 0.0172385722, 0.0771082789, 0.0831447095, 0.0684037134, 0.0298318285, 0.1022035927, 0.0560411848, 0.0279935151, -0.0437977500, 0.1222634166, 0.1433729678, 0.0333630480, -0.1174445003, 0.0459778607, -0.0206151381, -0.0579358451, -0.0631143302, -0.1265577227, -0.0995403528, 0.0269079749, 0.0832511783, 0.0083572753, 0.0500122458, 0.0272117574, 0.0448602922, 0.0019556351, 0.0277792476, -0.1456820369, -0.0131464321, 0.0789990425, 0.0700861141, 0.0387915187, 0.0869483799, 0.0046997918, 0.0638403073, -0.1124550104, 0.0303652771, -0.0611933060, -0.0228449628, 0.0665533841, 0.0927396268, -0.0126154982, -0.0560903959, 0.1068303809, 0.2482865304, 0.2315015942, 0.0718729496, -0.0652570724, 0.0729718879, 0.0476744659, -0.0634304211, -0.0198010243, -0.0512769148, -0.1130623594, -0.1112695411, -0.0975895599, -0.0148213571, 0.0922656879, -0.0146890571, 0.0578654148, -0.0477993563, -0.0205938481, -0.0446287245, 0.0043923235, 0.0258159358, 0.0072819269, -0.0321331583, 0.0777510181, -0.0671773478, 0.0769362152, 0.0772026107, -0.2273197472, -0.1089976281, -0.3742013276, 0.0398160443, 0.0436826795, 0.0001199432, -0.0235758778, 0.0650760308, 0.0893729851, -0.0225481857, 0.0033285574, -0.0409068055, 0.0856406540, -0.0176887605, -0.0082880454, -0.0312688462, 0.0049468414, -0.0433671102, 0.6158649325, 0.0725278184, 0.0178553741, 0.0780483857, -0.0348867141, 0.0386737548, -0.0508606024, 0.0901820585, -0.0262251720, 0.0133177713, -0.0776684359, -0.0496220924, -0.1359996498, -0.0874288753, 0.0025268337, -0.0441769734, -0.0138199460, -0.0066386308, -0.0556215160, -0.0368710421, 0.0681523383, -0.0416241251, -0.0242661797, -0.0734432638, 0.0357906483, 0.0513525456, 0.0469143540, -0.0113849724, -0.0122363521, -0.0441440754, -0.0396286286, -0.0439364128, -0.0133751770, 0.0381021015, 0.1012147442, 0.1029409394, -0.0562958270, -0.0205020383, 0.0574244633, 0.0939698517, 0.1522081643, 0.0745335519, 0.1345753670, 0.0220538303, 0.0810381100, 0.1347493976, 0.0860230997, 0.0333069861, 0.0612829104, 0.0292557869, 0.1320364475, 0.1272575408, 0.0188893005, 0.1009689718, -0.0054395976, -0.0020038637, 0.0660786182, 0.1105109230, 0.0703714862, 0.1083782688, -0.0064809225, 0.0686937347, 0.0920363739, 0.0998136327, 0.0520756505, 0.0242650490, -0.0118555175, 0.0536988266, 0.0142679531, 0.0659644008, 0.0469137467, 0.0275852736, -0.0568415299, -0.0814142823, -0.0246126316, 0.0645542294, 0.0888399109, 0.0917877778, 0.0453722887, 0.1334165484, 0.1404403448, -0.0281296764, -0.0434550606, -0.0205744356, -0.0231753886, 0.0144341560, -0.0160511229, 0.0236362498, 0.0430096164, 0.0666564554, -0.0905758068, -0.0325708166, 0.0590565391, 0.0991504267, 0.0222638045, 0.0373609699, 0.2029021084, -0.1118905097, 0.0456572287, 0.1083264053, 0.3695756197, 0.0500268042, -0.0619716011, -0.0414603576, -0.1099177524, 0.0652994961, -0.0724144056, -0.0897715017, -0.0440788493, 0.0733689070, -0.0043681795, -0.0440794863, -0.0651224852, -0.1043649092, -0.0343900397, 0.0990068242, 0.0782830939, 0.0359334759, 0.0425248109, 0.1097813845, 0.0080158720, 0.0425180495, 0.0341631994, -0.0059560682, 0.0038621596, 0.0335097946, 0.0462663546, 0.0254739169, -0.1575855762, -0.0797030404, 0.0773523226, 0.0697840825, 0.0169181414, 0.0531015322, 0.0529827699, 0.0015766254, -0.0524511300, 0.0610787943, -0.0007976330, 0.0442466736, 0.0458770841, 0.0155660883, -0.0068168608, 0.1060054600, 0.4891164601, 0.1794360131, 0.0322792940, -0.0595402122, -0.1249830201, 0.0339186750, 0.0739343241, 0.0639984831, 0.0533255748, 0.0364347920, 0.1020588055, -0.0044268821, -0.0575802214, 0.0147536118, 0.0147845913, -0.0266986899, -0.0477496162, 0.0065562204, 0.0724985301, 0.0936999917, 0.1430726647, -0.0461869352, -0.0298676454, -0.1694535315, 0.0642009005, 0.0740090236, 0.1375096589, 0.0891519040, 0.0606413409, -0.0282903165, 0.1019931138, -0.0541981868, -0.1711101085, -0.0422187857, -0.0736027285, -0.0322770029, -0.0304811429, -0.2072488368, -0.3957879543, -0.0202809293, -0.1659484059, 0.1824792325, -0.0265340842, -0.0157369133, -0.0560675487, 0.0919763893, 0.0249176510, -0.0797706023, 0.0221496467, -0.0610505529, -0.0351363942, -0.0280971937, -0.0872088596, -0.0185040943, -0.0688718781, -0.0280399341, -0.1308780909, -0.0540614463, 0.0191227160, 0.1627971828, 0.0156407282, 0.0508587547, 0.1197833642, 0.4945463836, 0.0085804900, -0.0362609252, 0.0791657493, 0.0853821635, 0.1332412660, 0.1558092684, 0.0771434605, 0.0458695032, 0.2565283477, -0.0516801700, -0.0279924888, -0.0871006325, -0.0931492895, -0.4518710971, -0.0013427606, 0.0828465968, -0.1800326258, -0.2268842310, -0.2330053300, -0.2102864236, 0.1671747863, 0.0421692841, -0.0325892605, -0.0907922313, 0.0156541243, -0.2595545650, 0.0154975168, 0.0056964085, -0.1021799520, -0.0804337561, -0.0343911834, 0.0247394890, -0.0614238083, 0.4287052155, 0.0864644572, 0.0370486267, 0.9108363986, 0.1275308877, 0.2293544114, 0.2489816695, 0.1534370333, 0.2065766603, -0.0092548151, 0.0507965833, -0.1178843528, -0.0599995330, -0.0561213195, 0.2502936721, 0.3313422203, 0.1217250377, 0.0938697010, -0.0306893755, 0.0125766359, -0.0221547000, -0.0842936859, -0.1581911445, -0.0115742842, 0.0143773491, -0.1379662007, 0.1686140150, -0.1154187694, -0.1268926710, 0.2467036843, 0.5921890736, 0.7090353966, 0.1213044971, -0.0016027471, -0.0027739480, -0.0132951457, 0.0271601938, -0.1216686368, -0.2604605854, -0.1859574169, -0.2847633958, -0.0216983128, -0.0726643726, -0.0122103998, -0.0292889792, -0.0918110386, -0.0401558094, -0.2946385145, -0.0016820345, -0.0509455130, 0.5694687963, 0.1850877702, 0.2931010723, 0.3693499863, 0.3221342266, 0.0813085884, 0.0892006084, -0.0942368880, -0.0770132318, -0.1435819566, -0.0384734310, 0.1020307317, 0.1618579030, 0.0200463664, 0.0229446385, 0.6314535141, 0.1435861439, 0.1458490342, -0.0333186835, -0.0459782556, -0.0999484807, 0.0229562987, -0.0376336463, -0.0813948214, -0.0286467411, 0.0264569502, -0.0145475743, 0.0862642229, 0.0943499729, -0.0560821481, 0.0469665378, 0.0351412483, -0.0684827045, -0.1022787318, 0.0297183711, 0.0350071043, 0.0801324397, 0.0552272014, 0.0599777587, 0.1152883843, 0.0015624474, 0.1619310379, 0.0466404930, 0.0215789545, -0.0163563862, -0.0369549543, 0.0734324083, 0.0735252798, 0.1179471388, 0.0195106454, 0.0479544699, 0.0086646304, -0.0301378425, 0.1179985180, -0.0763551518, 0.0591408014, 0.1241944805, 0.0703786016, 0.1368558258, 0.0833450407, 0.1205029488, -0.0057873749, 0.0021975946, 0.0493627526, -0.0199726783, 0.0295454264, 0.0574524775, 0.0402599387, 0.0404392220, -0.0990935192, 0.0452487618, 0.0891620815, 0.0885084942, 0.0300730672, -0.0331670046, 0.0481106117, 0.0218711998, -0.0229524821, 0.0726892650, -0.0449360386, -0.2031731457, 0.0536527708, 0.0883464590, -0.0154039720, 0.0612006374, 0.0303407442, -0.0467796065, -0.1036865115, -0.0581282377, 0.0292930733, -0.0126366559, 0.0640268028, -0.0149081387, 0.1295183152, 0.0336709879, 0.2168891132, 0.0498112477, 0.3002604544, 0.0629508048, -0.0441478863, 0.0077777724, -0.0589319207, 0.0113040162, -0.0772198737, 0.0112419622, -0.0149439182, 0.0055038878, -0.1066032425, 0.0022968038, -0.0431304276, 0.0400206968, 0.0268659964, 0.1067822650, 0.0832516253, -0.0520048290, 0.0078626955, -0.0217348784, 0.0440913439, -0.0282107741, -0.0020350586, 0.0509228706, -0.0514758192, 0.0260747578, -0.3033702374, -0.2942439616, 0.1250957698, 0.0506437309, -0.0553122908, 0.0154473977, 0.0514471605, -0.0184349623, 0.0778743550, 0.0476617515, -0.0432684720, -0.1960976720, 0.0108827967, 0.0451388322, -0.0148662068, 0.0377069227, 0.0516165681, 0.0785038993, 0.4447219372, 0.0931039974, -0.0133951074, -0.0001548343, -0.0031134554, 0.0744301975, 0.0771289617, 0.0182927977, -0.1037211046, -0.0971543118, 0.0105756707, -0.1069348305, -0.1393560916, 0.0451158732, 0.0776989833, 0.0607417822, -0.0648344085, -0.0210258048, 0.1165698096, -0.0429803170, 0.0956845284, 0.1017294973, 0.1077312902, -0.0073810397, 0.0135542909, 0.0822935626, 0.0651654229, -0.0307362992, 0.0926445499, 0.0370458849, 0.0178789496, 0.0758598745, 0.1078557149, 0.0448840111, 0.0585347638, 0.0761192665, 0.0589820519, -0.0134127485, 0.0429634713, 0.0496695265, 0.0696026012, 0.1000582203, 0.1341270357, 0.0540643148, 0.0265105460, 0.0501373112, 0.0846784040, 0.1152909100, 0.0156528782, 0.0137791755, 0.0713246390, 0.1557883471, 0.0664967746, 0.1340748519, 0.0360113382, 0.1135976389, 0.0968154818, 0.0395246707, 0.0477384776, 0.0615714118, 0.0981187746, 0.0012060005, 0.0383346044, -0.0491372943, 0.0247725062, 0.0465665236, -0.0964687467, -0.0410588272, 0.1013791114, -0.0897268057, 0.0498152301, -0.0133191459, -0.1251225024, 0.0254905690, 0.0140452301, 0.0318672806, 0.0895185918, -0.0585146621, 0.0963004231, 0.0845813602, 0.0835719928, -0.0448071025, 0.0060816221, -0.1772539467, 0.0637833700, 0.0708378479, 0.0207599439, 0.0584191494, 0.1195340604, -0.0306626465, -0.1535691023, 0.0362603962, 0.0549769998, 0.1079750359, 0.0541925766, 0.1119479313, 0.0708608553, -0.1173368394, 0.2154877037, 0.0845181569, 0.1682204455, 0.1495723277, -0.0081086941, -0.0331332795, 0.0190422554, -0.0448684059, 0.0501358621, 0.0375710204, -0.0821593553, -0.1353017688, -0.1596087515, -0.0278794970, -0.0321321785, -0.1068176553, 0.1210394651, 0.0209998321, 0.0134798260, 0.0737411603, -0.0373718813, 0.0429707952, -0.0100692520, 0.0656019524, -0.0505888909, -0.0004638774, 0.0110197272, 0.0787322000, -0.0509430766, -0.0450280756, -0.1743503809, 0.0025391309, 0.0906186104, 0.0356584638, 0.0659076348, 0.1299552917, 0.0355829224, -0.0961633399, -0.0940754190, -0.1386696994, 0.0310762040, 0.0222395789, 0.0379011929, 0.0367646851, 0.1185467988, 0.0997719392, 0.5058317780, 0.2514653802, 0.0935165882, 0.0900252685, -0.0554916188, -0.0114351176, 0.0498379730, -0.0230644792, 0.0326585285, -0.1104069054, -0.0605099462, 0.0783543214, -0.0513624512, 0.0478707030, 0.0284139346, -0.0894059315, 0.0026306731, 0.0876555517, 0.0589183122, -0.0093981903, 0.0246679373, 0.0866893902, -0.0545011386, -0.1222879291, 0.0102862222, 0.0776850730, 0.0676708445, 0.0080511319, -0.0290130824, 0.0318689644, 0.0026409281, 0.0848439857, -0.1080208570, 0.0782399476, 0.0398219228, 0.0337336212, -0.0191517472, 0.0681952760, 0.1047107428, 0.0649809241, 0.0763717666, 0.1206848547, 0.1050097048, 0.1056790724, 0.0898543298, 0.0491854884, 0.1186289191, 0.0699442849, 0.0979007408, 0.1079365015, 0.0791722238, 0.0080548879, 0.0982897878, 0.1304120123, 0.1090409979, 0.0902060270, 0.0232989620, 0.0479622371, 0.1217763200, 0.1721737534, 0.0962109119, 0.0166273415, -0.0050488305, 0.0652690381, 0.1376664788, 0.1561443061, -0.0224903263, -0.0290609356, -0.0333887860, -0.0313484184, -0.0048430981, 0.0749067441, -0.0117944488, -0.0634038299, 0.0225525834, 0.0382202826, 0.0242631827, 0.0098881209, 0.0814652294, -0.0446017757, -0.0314662904, 0.0111286296, -0.0426913872, -0.0791725367, -0.0478964932, 0.0945679620, 0.0581918396, 0.0614831820, 0.0115187149, 0.0301499441, -0.0280637220, 0.0673225895, -0.0259489045, -0.0433921292, 0.1051740572, 0.0503664911, 0.0122083612, -0.1145429015, 0.1447958797, 0.0910458788, 0.2284550965, 0.1951177865, -0.1037064567, 0.0834970400, -0.1163566411, 0.0497030579, -0.0587914400, -0.0158694591, 0.0774086192, 0.1229077354, 0.0195412599, 0.0608388372, -0.0831549540, -0.1544453651, 0.1603339016, 0.1117877513, -0.0623299032, 0.1035967171, 0.0100638345, -0.0369460657, -0.0361253247, -0.0368825570, 0.0717510283, -0.0008862283, 0.0374308452, -0.0020081541, -0.0350677148, 0.1468575597, -0.2019473016, -0.0272939540, 0.0353229865, 0.0312012229, 0.1429520398, 0.0522821024, -0.0284246989, 0.0612735562, 0.0238540601, -0.0118995914, 0.0192781091, 0.0381797142, -0.0122395633, 0.1056718826, -0.0343707390, -0.0046623005, 0.6434507966, 0.2178407460, 0.0393530056, 0.0107058873, -0.0628327131, 0.0310726985, -0.0167310704, 0.0292552430, -0.0711415261, 0.0626684204, 0.0430165231, -0.0059956070, -0.0702134073, 0.0665650368, 0.0630095676, -0.1027555093, 0.0593649298, 0.0496260189, 0.0122485701, 0.1010866091, 0.0190074984, -0.0879953355, -0.0296817441, 0.0677733645, -0.0343690477, 0.0367668979, -0.0085087456, -0.1644089818, -0.0116925025, 0.0318662673, -0.0423284583, 0.0603291541, 0.0653523356, -0.0223381985, 0.0035861121, 0.0963506997, 0.1284995377, 0.0300942957, 0.0168820973, 0.1678735912, 0.2348001599, -0.0668840110, 0.0851120651, 0.0569566786, 0.0724743009, 0.0878970027, 0.1852895319, 0.1416751146, -0.0796811879, -0.0872387588, -0.1001165882, -0.0208092742, -0.0731373355, -0.0352368504, 0.0349866562, 0.0454177484, 0.0762902200, 0.0732424632, 0.1524609178, 0.1013054550, -0.0481576063, -0.1137807295, -0.0044606910, -0.0800032094, -0.0030575332, 0.0069875610, 0.0545249246, 0.1251725852, 0.0358338691, -0.0543144457, -0.0784323588, -0.0450986139, -0.0167988278, -0.0871901214, 0.0092212800, -0.0278996918, 0.0604326017, -0.0429008678, 0.0038652143, 0.0573719516, 0.0028524287, 0.0662545338, 0.2802350223, 0.1381982267, -0.0915225670, -0.0683407113, -0.0533503592, -0.0671651065, 0.0417231284, 0.0711544305, 0.1906440705, 0.1598912030, 0.1396352798, 0.0294105355, 0.1047684848, -0.0278709549, 0.1353358924, 0.0492973402, -0.0115062892, 0.3157737851, -0.0455408767, 0.0172238499, -0.0958939120, -0.0278006624, -0.0455414988, 0.1139129698, 0.0186836571, -0.0470094495, -0.1052685454, 0.0277901720, 0.0492608696, -0.3184634447, -0.0296312626, 0.1307472736, -0.1698984802, 0.0395686813, 0.0866382495, -0.0729849190, 0.0988741368, -0.0314713381, 0.0284127630, 0.0425492041, -0.0063654478, -0.0879339799, 0.0772805810, 0.0189800672, 0.8025313020, 0.7318813205, 0.5721271634, -0.1493000984, -0.0880495906, -0.0765358657, -0.0891593322, 0.0925673917, 0.0830891356, 0.1127970293, -0.1338850409, 0.1317004412, -0.0207576696, 0.0547197126, -0.0691315681, -0.0653554499, 0.0124358442, 0.1008857042, -0.3655897081, 0.2822190821, 0.3265947700, -0.0718160495, -0.1305400133, -0.0004139066, -0.0231427979, -0.0463427342, -0.0407164097, -0.0313042514, 0.0737520158, -0.0609025620, 0.0964378417, 0.0496042483, 0.1230800599, 0.1231827512, 0.0482392944, -0.0373538323, 0.0279586520, 0.0000468498, 0.0051778117, -0.1096076891, -0.1154238358, 0.0001695188, -0.1575961411, -0.0147977145, -0.0809851959, -0.3038786352, -0.0115124593, -0.0060010217, -0.0345883258, 0.0508875810, 0.0526722893, 0.0259879399, -0.0045752209, 0.0692155659, -0.0308817085, -0.0870875344, -0.0704835057, 0.0332265906, 0.1345373988, -0.0779801235, 0.1066880003, -0.0170505755, 0.1242780462, 0.1718868017, 0.0393701531, 0.0354526229, 0.0467784293, 0.0051061208, -0.0057204943, -0.0785642415, 0.0218757056, -0.0343416817, -0.0693791658, -0.0367707945, 0.0063191499, -0.0711107850, -0.0467086099, -0.0051857550, -0.0441506132, 0.0619728416, 0.0701536462, 0.2020986080, -0.0979698971, 0.0785580501, 0.0395659879, 0.0411242060, 0.1048340723, 0.0681172088, -0.0030925975, 0.1016178951, 0.1155514568, -0.1086753756, 0.0673595518, 0.0650598034, 0.0659398288, 0.0841367543, 0.0004989665, 0.0418054052, 0.1812703013, -0.0508396588, 0.2239598930, 0.2114595920, -0.0475864746, 0.0269426648, -0.0510501042, -0.1586599648, -0.0114213005, 0.0872694179, 0.0745461583, -0.1021029055, -0.0398829617, 0.1141115353, 0.0502210259, -0.0363709219, 0.2436142713, 0.0839558393, 0.0574332550, 0.1638108641, 0.1690042466, 0.0118340570, -0.0280197002, -0.0700417310, 0.0236986168, -0.0769301206, -0.0817294195, -0.1244379133, -0.0971567407, 0.0543808863, 0.0293013919, -0.0570661202, 0.1341548860, 0.1100298613, -0.0602243766, 0.0726701766, 0.0099334195, -0.0558671020, -0.0895208493, 0.0345106013, -0.0194983184, 0.0524259917, -0.0008161580, 0.0005344226, 0.1020371616, -0.0662871674, -0.1550835520, -0.1251496077, 0.0127084777, -0.0814836621, -0.0237334054, 0.0166097358, -0.0872265548, 0.0021444608, -0.0462932177, 0.1409164220, -0.1366772354, -0.1518532485, 0.0310681909, 0.0707314685, -0.0353389047, -0.1575386673, 0.0315977372, 0.0554486997, -0.1267563850, -0.0266600363, -0.1228284240, -0.0243942570, -0.1197860017, 0.0262111500, 0.0952385142, 0.0483398028, -0.0534251891, 0.1181354299, 0.0881817117, -0.0871774629, 0.1087416038, -0.0345179997, 0.0106481854, 0.0576187037, -0.0562593937, 0.0835275948, 0.0612852871, -0.0638832971, 0.0004080135, -0.0171764195, -0.0169863161, 0.1937908828, -0.0357459411, 0.0345122367, 0.0686223358, -0.2337653339, -0.0659550801, 0.0045942268, -0.0271668527, 0.0271052700, 0.0983158499, -0.0996422693, -0.0636140928, 0.1352972239, -0.1609431505, -0.0840308964, 0.1318522692, -0.0472883061, 0.2315870970, 0.1229687035, 0.0496972837, 0.1409274787, 0.0514021069, 0.1887180805, 0.1458760202, 0.0283860117, -0.0248311739, 0.0201668777, -0.0221324414, 0.0106640598, -0.0112474347, -0.0221688971, -0.1044210419, -0.1064716876, -0.0264873691, -0.0441447869, -0.0165005550, 0.0876716524, -0.2283194363, -0.0293783955, 0.0067056022, 0.2663948238, 0.0444034599, 0.0613543913, 0.1013112590, 0.0366129130, 0.0122813275, -0.0273547564, 0.0700216442, 0.0236709435, -0.0172381904, 0.0118897920, -0.1000673100, 0.0604781136, -0.0125507982, 0.2295740396, -0.0148407621, 0.0353695378, 0.2299554497, -0.0241608620, 0.0826216564, 0.6373437047, 0.0128775546, 0.1043371335, -0.0111932429, -0.0502107739, -0.0997100919, -0.0175135490, -0.2970395982, -0.1584627777, -0.1574698687, -0.0295315981, 0.0681546330, -0.1277282387, 0.1495446563, 0.2400963157, -0.1387827843, 0.3769858479, 0.5412460566, -0.0882356912, 0.0431003012, -0.0409380756, 0.1239937693, -0.0337768160, 0.0251624063, 0.1163453534, 0.0156176127, 0.1318853199, 0.0697849542, -0.0580732785, 0.0438489169, 0.3626948893, 0.0168282483, 0.0122279543, 0.0222576130, -0.0623343922, -0.1116298810, 0.0152516887, 0.0578530580, 0.0162924770, 0.0455298647, 0.0091789290, 0.0808779001, 0.0634692982, 0.1506058276, 0.1362751126, -0.1962025017, -0.0158095602, 0.0916771814, -0.0464512855, 0.0795645714, -0.0326740593, 0.0457195602, -0.0292485859, 0.1028612331, 0.0700751618, 0.0032034284, -0.0313326009, 0.0235541146, -0.0017068795, -0.0406851433, -0.0557157621, 0.0920312256, -0.3063675165, -0.2094546258, 0.2355435044, 0.0120759616, 0.0455165803, 0.0435603373, 0.1088651493, 0.1001753286, -0.0041038003, -0.0031948425, 0.0103782564, 0.2125784904, 0.1808416843, -0.1006424502, 0.2102325857, 0.0223412067, -0.0730031505, 0.0962418318, 0.1526011229, -0.0816105604, -0.0598483011, -0.0884921923, -0.0010319576, -0.0365565009, 0.0838895887, 0.0569770336, -0.0793604031, -0.0430883504, 0.0507076271, -0.0362596698, -0.0010169570, -0.0018499191, -0.0630285069, -0.0642020702, 0.0677331761, -0.0535143763, -0.0323941000, -0.0895022079, -0.0066799652, 0.0561033413, -0.0488006324, 0.0041199829, 0.0146315685, -0.0670201257, 0.1647469252, 0.1208725870, -0.0336517245, 0.0361505523, 0.0411984734, 0.0084772846, 0.0399878435, 0.0123250159, 0.0468109548, 0.1228561997, 0.0073170490, -0.0090930834, 0.0188199468, -0.0671481937, -0.0527486317, -0.1660799235, 0.0038634615, 0.0642125383, -0.0331464857, -0.0044672415, -0.0259086303, 0.0066308836, 0.0489067696, 0.0340577699, 0.0857070833, 0.1854678392, 0.0223521516, 0.0819772780, 0.1428517997, -0.0985199586, -0.0341265760, 0.0166065209, 0.1281059384, 0.0619212613, 0.1021458358, 0.1869847775, -0.0571805127, 0.1540306658, 0.5228565931, -0.0372583382, -0.0347057320, -0.0744223446, -0.0968534276, 0.0196142625, -0.0646181032, -0.0657022297, -0.2075427026, -0.0908791199, -0.0429746434, -0.1121949404, -0.1164070219, 0.1548379064, 0.2635312080, -0.1035378203, 0.2484783381, 0.0565171018, -0.1439201683, 0.0136409188, 0.0322689228, 0.0637718961, -0.0236006845, -0.0044320887, 0.0627407655, -0.0381634347, 0.0135856261, 0.0315002315, 0.0179833621, 0.0180274677, 0.3270718753, -0.0799133852, -0.0630153194, 0.0690533817, -0.0730345398, 0.0201695263, 0.0038336150, -0.0735495016, 0.0834599882, 0.1008024290, -0.0980357900, -0.0354256779, 0.0320079885, 0.2073046714, -0.0029421835, 0.0394529961, -0.0382223651, 0.0980293006, 0.0551693179, 0.0800480545, 0.0779979229, -0.0086521897, 0.0288368762, -0.0194286313, 0.0908932835, -0.0834911168, -0.0581612661, -0.0046214443, 0.0651028380, 0.0073828250, 0.0200964380, -0.1459390372, 0.0320368856, -0.0927158594, 0.1179048344, 0.0628660992, -0.0281758346, 0.0186311770, 0.1260780990, 0.0678640455, 0.0245329943, 0.1054771692, 0.1110426486, 0.2277279943, 0.0894654915, -0.0078284526, 0.1672284156, 0.0534497574, -0.0059090639, 0.1231385842, 0.2411907464, -0.0425921269, 0.0261131916, 0.0336823612, -0.0624387600, -0.0741473213, -0.0281153992, 0.0662949309, -0.0639375523, 0.0583488643, 0.0249749757, -0.0346978419, 0.0039209486, 0.0132824462, 0.0053949188, 0.0156362392, -0.0523965098, 0.0023727336, 0.0220714044, -0.0084448708, 0.0377980322, 0.0559640713, 0.0131353298, 0.1374341100, 0.0897163227, 0.0431032963, 0.1189211458, 0.0434710383, 0.1119657606, 0.1281475425, -0.0077313334, -0.0130203255, -0.0211586375, -0.0498413481, 0.0047166720, -0.0053576068, 0.0742747039, 0.0729492679, -0.0622928776, 0.0311552491, 0.0609160475, 0.1023236588, 0.0043895268, 0.0935064182, -0.0031588164, 0.0406321771, 0.0404700413, -0.0232792925, -0.0169700589, 0.0344333388, -0.0870761648, -0.0002776152, 0.1134232730, -0.1002742350, 0.0064713946, 0.1057128012, 0.0993301049, 0.0120632537, -0.0661738589, 0.0306360815, 0.0566819869, -0.0792094395, 0.1363311410, 0.1802002937, -0.2476290017, 0.0221011490, 0.0381485857, 0.0609980896, -0.0428120717, 0.1261760443, 0.0937596485, 0.0436441191, 0.0714000836, -0.0007803568, 0.0426532701, 0.0478200503, 0.0546452776, 0.1072575003, -0.0531239845, 0.1225436255, 0.0019686087, 0.1562568545, 0.1031153202, 0.0994089991, 0.0042700213, 0.0036793475, 0.0036950954, 0.0576858856, -0.0097605670, -0.1073348522, -0.0533174947, -0.0712519363, -0.0140112666, -0.1001588479, 0.1161358207, 0.0771100670, -0.0026894095, -0.0231836531, -0.0569271781, 0.0058900849, 0.0415476114, -0.0115806339, -0.0562869236, -0.0768047571, 0.0382947400, 0.0324760042, -0.0407594107, 0.2729297876, 0.0614367649, 0.3351483047, -0.0003081050, -0.0193423033, -0.0266084559, 0.0256098527, -0.0147357136, 0.0203049947, 0.0636834949, 0.0056725368, -0.0463283397, -0.0447635092, 0.0470353812, 0.0790993571, -0.0250197724, 0.0256988611, 0.0686421916, 0.3502709568, 0.0641096309, 0.1202283353, -0.0226133261, 0.0676351860, 0.0234352797, -0.0249951538, 0.0960566700, 0.0327176265, -0.1201635227, -0.0566244349, -0.0583332106, 0.0246300362, 0.0516652875, 0.0290589035, -0.0841354057, -0.0378700756, 0.1137778610, -0.0855124891, 0.0209837705, -0.0001258278, 0.0201538336, -0.0266938433, -0.1282265633, -0.0135341967, -0.0923290625, -0.0002464574, 0.1237921342, 0.0666682944, -0.0018721595, 0.0861469805, 0.0341085158, -0.0283007659, 0.0715241954, -0.0289268307, -0.0627055839, 0.0231868792, -0.0284680482, 0.0603383407, 0.1522272527, 0.0613896400, 0.0901392251, 0.0615665689, 0.0476503745, 0.1527677923, 0.0979842842, 0.0377079695, 0.0064051296, 0.0894231498, -0.0012156587, 0.1153810769, 0.2016591281, 0.0825367421, 0.1339219660, 0.0302532222, 0.0919551402, 0.1159488633, 0.0105788577, 0.0331634432, 0.1615694165, 0.0253300872, 0.1098671257, 0.0728007108, 0.1225797608, 0.1156780049, 0.0922094211, -0.0446507670, 0.0691815689, 0.0831032917, 0.0635254458, 0.0211018343, 0.0574790314, -0.0566045307, -0.0150553221, 0.0024217905, 0.0823669061, 0.0195919219, 0.1048110202, 0.0419825092, -0.0001567172, 0.2117389441, 0.0325420201, -0.3828262389, -0.0389322266, 0.0650375187, 0.0719188675, 0.0355992876, 0.1171586588, 0.0459875315, 0.0628787130, -0.1933897734, -0.0335763246, -0.1636276692, 0.0368275493, 0.0440405607, 0.0697741956, -0.0398649573, -0.1092117727, 0.0688360333, 0.2057396173, 0.4256965518, 0.0664824471, -0.0544128940, -0.0357251577, -0.0984204784, 0.0581520945, -0.0610714257, -0.0431348048, 0.0243900344, -0.0208346844, -0.0068751797, 0.0252064206, -0.0373040102, -0.1025327221, 0.1528729647, 0.0946038067, -0.0618273020, 0.1236798987, 0.0278874598, -0.0505493619, 0.0726850107, 0.1114371717, -0.0328507125, -0.0434075519, -0.0099092098, -0.0385982096, -0.4147585630, -0.5385429263, -0.6769818664, 0.0744979084, 0.0365713276, -0.0022731544, 0.1381032020, -0.0293472707, -0.0467555970, -0.0303184520, 0.1125730500, -0.1394965947, 0.1348906606, 0.1107628644, -0.0230569933, 0.0168571305, 0.0869309455, 0.0358186997, 0.8785712719, -0.0333387256, -0.0082373424, 0.1858045906, 0.0547867939, 0.0569883958, 0.1378606856, 0.0744522139, 0.0027301647, 0.0201650430, 0.0874763578, 0.0464031510, -0.0210358854, 0.0162111428, -0.0189477336, -0.0485746227, -0.0374920219, 0.0160892941, -0.0611307248, 0.0676617026, 0.0020247139, 0.0533889607, 0.0207373574, -0.1293400079, -0.0693391934, 0.0712056458, -0.0735799372, -0.1064810008, 0.0530011840, 0.0513628162, 0.1179155037, 0.0569813959, 0.3253827989, -0.0508959219, -0.1017688289, -0.3761593401, -0.1538559198, -0.0611621775, -0.1271328926, 0.0179055296, 0.0578654930, 0.1195607260, -0.0132615454, 0.0247148443, 0.0208211523, -0.0163708348, 0.0281185452, -0.0187151302, 0.0042133960, 0.0369994789, -0.1351391673, -0.0553811342, -0.0235604830, -0.1147663891, 0.1085580438, 0.0125447027, -0.1244316474, -0.1202761233, -0.1533793062, 0.0016165677, -0.0555155016, 0.0559962504, 0.0591659881, -0.0517530553, 0.1032576188, 0.0187654272, -0.0357700661, 0.0818226784, 0.0428222828, -0.1620172113, -0.0064112493, 0.0259352941, 0.6419947147, 0.0113691324, 0.0525338762, -0.0494359061, -0.0935761034, -0.2275970876, -0.0095131779, -0.2485325933, -0.1750873029, -0.1435779780, -0.0619470440, -0.0296692662, 0.1049530059, 0.0190232359, 0.0585405603, -0.1249986067, -0.0372904688, -0.0932244584, -0.2092231810, 0.0117597487, -0.1593357921, -0.1220309660, 0.0498049669, 0.0051972782, -0.0456267484, 0.1272839308, -0.0084969178, 0.4878953695, 0.1450282335, 0.0725798085, 0.0869070739, 0.0043835300, 0.1327447742, -0.1412451863, -0.1220822707, -0.1352715194, 0.1193557233, -0.3597338498, -0.4293587506, 0.3442170322, 0.8406788707, 0.4764201939, 0.0564688295, 0.0167767629, 0.0331628248, -0.0935847908, 0.0198290311, -0.1099626496, -0.0504232943, -0.0783402994, -0.1290801764, -0.3052537739, -0.2260594815, -0.3134358227, 0.0749357417, 0.1746560782, 0.1232745349, 0.0888957903, -0.0049593770, 0.0019178343, -0.0166305825, -0.0749492124, -0.0094209779, -0.0148935234, 0.0078063551, -0.0244713426, 0.0736651644, 0.0484825037, 0.0138626816, -0.0065069865, -0.1100209132, -0.0571058616, -0.0388187133, 0.0675791577, -0.0425130539, 0.1190571338, 0.1070620120, -0.1236405000, 0.3782437444, 0.0083531728, 0.0920298696, 0.2916418016, -0.1000905633, -0.0632941052, -0.0127193360, 0.0262772031, -0.0156052290, -0.0183986705, 0.0416645221, 0.0232199468, 0.5459642410, 0.1209816337, 0.0013983378, 0.0610794239, -0.0103257420, -0.0490264483, 0.0733718649, -0.0001854388, 0.1354945898, 0.1223633513, 0.0615061037, 0.0023986194, 0.1823343039, 0.0150357299, -0.0756088272, 0.1420668662, -0.0809003189, -0.0312037040, 0.1918014288, 0.0073662293, -0.0303629339, -0.0952399671, -0.0522540808, 0.0512079597, 0.1084345877, -0.0388892926, 0.1554830372, -0.0193173513, 0.0884179845, 0.0052443333, 0.0909607708, 0.0969870761, 0.0394488126, 0.0723631456, 0.0439286418, 0.0244912282, -0.0540007427, 0.1166555956, 0.0763998404, 0.0508129448, 0.1270688623, 0.1362673938, 0.0774746090, 0.1739225388, 0.1212186217, 0.1993822902, 0.1656043530, 0.1343579441, 0.0207475852, 0.0003334392, 0.1242543459, -0.1594931036, 0.0229555462, 0.0452509522, 0.0117894476, -0.0263344385, -0.0153120058, 0.0558675863, -0.0989222378, -0.2085759789, 0.0691892654, -0.1408775598, -0.1619606763, -0.0617555194, 0.0022940438, 0.0843972266, -0.0079578198, 0.0834375322, 0.0902960375, 0.0064373314, 0.0699940175, 0.0770966858, -0.2691867948, 0.0100556789, -0.1222847104, 0.0417649411, -0.0938740373, -0.0303133167, -0.0893921778, 0.0710313171, 0.1800012290, 0.0718299374, 0.3252480626, 0.2084509283, 0.0753080696, 0.0215197559, 0.0384036377, 0.0273432322, -0.0758270472, -0.1341480911, 0.0849730596, -0.1209818870, -0.1626069397, 0.2112692595, 0.0322015435, 0.0732741281, 0.0922133774, 0.0982215106, 0.0038069836, 0.0254092682, 0.0832486451, -0.0729863420, 0.1023378372, 0.0209255330, 0.0383927263, 0.0232057516, -0.0390953235, 0.0241877809, -0.2538598180, -0.0634621456, 0.2265198678, 0.1106042713, 0.1136312559, -0.0494051948, 0.1616532803, -0.0247946437, 0.0132560609, 0.1020375490, 0.0650750548, -0.2741509378, 0.1500286758, 0.1284306645, -0.0400196053, 0.0250826497, -0.0125338295, 0.0304696783, 0.2960146368, 0.0478353016, 0.0757007822, 0.0470463037, 0.1270237714, -0.0059133801, 0.1077651754, 0.0481543951, -0.0486874580, 0.0186758172, -0.0134220384, -0.1160756350, -0.0814984962, -0.0211110972, 0.0295451097, -0.0169605613, -0.0190857369, 0.0036685064, -0.0754451677, 0.0734319985, 0.1349464208, -0.0629537329, 0.0067548151, 0.0230168365, 0.1124156490, 0.0891905874, 0.0771815702, -0.1213717312, -0.0490263253, 0.0474884063, 0.0070671947, 0.0139619941, 0.1288719177, 0.0717738494, 0.0584811680, 0.0903008878, 0.0121906446, 0.1356311291, 0.0881759971, -0.0033974352, 0.1319663376, -0.0142279873, 0.0864844620, 0.0538098961, -0.0574959591, 0.1773038954, 0.0576788820, -0.0061887666, -0.0985333323, 0.0189345032, 0.0202821828, -0.0039870003, -0.0710672289, -0.0865150690, 0.0910500437, 0.0480862819, -0.1401633620, 0.0268658213, -0.0624472424, 0.0702668279, -0.0642344207, -0.0075724935, -0.0022211915, -0.1032201424, -0.0565691404, -0.0918571800, 0.0755420998, 0.1165408865, 0.0621790066, 0.1307022423, 0.0929921418, 0.0085692611, 0.1937210560, 0.0920149535, -0.0002603047, 0.0507667214, 0.0793531612, 0.0941887051, -0.0635956451, 0.0732911602, 0.2639616430, 0.0846000165, 0.3058075905, 0.6427468061, -0.1039011031, -0.0683786869, -0.0920343176, -0.0991858244, -0.0348829292, 0.0639740080, 0.0681255385, -0.0661685094, 0.1372361034, -0.0303133484, 0.0025495945, -0.0244108867, 0.1124029458, 0.2032087296, -0.0667006597, 0.0778370872, 0.2017025501, -0.1066488698, 0.0436714441, -0.0430919193, 0.0457771383, 0.0480699502, -0.0137070520, 0.1282018870, 0.0901276842, 0.1032955721, 0.1716382951, -0.0384671353, 0.0721042082, -0.0393955521, -0.1257423759, -0.0959736481, 0.0820743740, -0.0558687747, -0.0285308864, 0.1317043453, -0.0136683807, -0.0073322728, 0.0478371307, 0.0835362524, -0.0127391210, 0.0697520897, 0.6779921651, 0.6033186316, 0.2563607693, -0.0702452213, -0.0737121627, 0.0826242119, 0.0938962027, 0.0592701323, 0.1095459536, -0.0528683476, 0.0734263361, 0.3743836880, -0.0376006030, 0.0360280499, -0.0098622441, 0.0780349225, -0.0521087274, -0.0414843298, -0.5690476298, 0.3786242604, 0.1220280826, -0.1418438405, -0.0089188088, 0.0549849682, 0.0728264451, 0.0305578522, 0.0339446478, 0.0783581957, 0.0600284114, 0.0519742332, 0.2959204912, 0.1483222097, -0.0308954325, 0.1195965111, 0.0277958848, -0.1214927062, 0.0738895535, 0.2363932878, -0.0013513312, -0.0313195847, -0.0504572019, -0.1041326076, -0.0333924703, 0.0839424357, 0.1333150268, -0.1473447084, 0.0398510545, -0.0205765367, -0.0529356711, -0.0397663936, 0.1074877009, -0.0103963939, -0.0606947578, 0.0791258961, 0.1791252047, 0.0449325889, 0.1239114255, 0.0126068275, 0.0113557540, 0.1165425628, -0.0628342628, 0.1134704426, -0.0655488819, 0.0296560246, 0.2132205367, -0.0052304710, -0.0391913950, 0.0441452116, -0.0706935078, -0.0279486403, -0.0552269034, -0.0786367208, 0.0652890578, 0.1645904481, -0.1418557912, 0.0415066741, 0.0317102298, 0.2912548780, 0.1174629256, 0.1002533436, -0.3517780006, 0.0347368047, -0.2155217826, -0.1704293191, 0.0728163123, 0.0718507692, -0.0647865310, 0.0002202873, 0.0150016397, -0.0409658253, 0.0116209360, 0.1826303750, -0.1408506930, -0.0009071713, -0.0592051223, -0.0025855924, 0.0002558806, 0.0588069335, 0.1156630665, -0.0388503149, 0.0206308067, 0.4107019901, 0.0286974218, -0.0480443873, -0.0224953778, 0.0575239919, -0.0984665528, -0.0932572931, 0.0019364444, 0.0444639064, -0.0037212279, 0.0579801723, -0.0331857540, -0.0947562233, -0.0180148985, -0.0094998637, -0.0426228009, 0.0997513980, 0.1072812527, 0.0639698803, 0.0637389421, 0.0226848703, 0.0494355708, 0.0976980776, 0.1017735377, 0.0771029070, 0.1312471479, 0.1547397375, 0.1061483324, -0.0929112360, 0.0205020495, 0.1390413493, -0.0028613755, -0.0487778336, -0.0317222401, -0.0022956424, 0.0526241399, 0.0538352951, 0.0491786785, -0.0493580699, -0.0204135180, 0.0240671560, -0.0026179666, 0.0620708577, 0.2157923579, 0.1215418354, 0.0879126936, -0.0244383030, -0.0833345354, -0.1034744233, -0.0555639490, -0.0951822847, -0.0717432946, -0.1055359542, 0.0757895708, 0.1434072852, 0.0141066248, 0.0490263253, 0.0330375321, 0.0897033289, 0.0810947642, 0.0057382891, -0.3554295599, 0.2091943324, 0.0319248885, 0.0810376331, -0.1047216803, 0.0558040366, -0.0663601160, 0.0315911844, 0.0728546530, 0.1048506647, 0.0877311453, 0.1231799275, 0.0226620249, -0.0611056834, -0.1738910228, 0.0404977947, 0.0055225212, -0.1206574962, 0.0184193049, -0.0122949844, -0.2060264498, 0.0152206197, -0.0990324989, -0.7989546657, -0.1177405193, -0.2151386440, -0.1522361487, 0.0237647779, 0.0339534357, -0.1163166761, 0.0791041106, 0.0672897100, 0.1657769382, 0.0021502972, -0.0071108760, 0.1176787317, -0.1586983651, -0.0123709468, 0.0357731208, 0.0125084752, 0.0730316117, -0.0083960723, 0.0441975556, 0.1231497228, 0.1138710231, 0.1554297507, 0.1428408176, 0.0717884153, 0.1000164971, 0.0901771411, 0.0821989626, 0.0910233408, 0.0046054139, 0.0475614294, -0.0460432284, -0.0260618646, -0.2510559559, -0.0627530590, -0.1436074376, -0.2384194434, 0.2315109372, -0.0067180893, -0.2415531874, 0.6655335426, -0.0264859293, -0.0925656855, 0.0179953631, 0.1799112558, -0.0043088715, 0.0603520647, 0.0917806104, 0.0142554212, 0.1439131200, -0.1975671202, 0.0328263417, -0.0203061514, 0.1175108775, 0.3991943300, 0.0327689610, 0.1473786086, 0.4011726379, -0.2078762949, -0.5178685784, 0.8118206859, 0.1641044021, -0.0249940772, -0.0102136526, 0.1219870970, -0.0558195002, 0.0473875776, -0.3812715411, -0.0778900310, -0.4300951660, 0.1515168995, 0.0133869471, -0.0532852300, 0.2693351805, -0.1752215326, -0.2927530706, 0.0438409261, 0.8195047975, -0.2452156097, 0.1157638282, 0.0247961432, -0.0243836548, 0.0343129672, 0.0320685469, -0.0101640420, 0.0617350452, 0.0127733303, 0.1878010482, -0.0066167447, -0.0971781462, -0.1177413613, 0.0226155967, -0.0556082577, 0.0597894639, -0.0910695940, -0.1198779568, -0.0667496473, -0.0054470282, 0.1314455271, 0.0487634912, 0.1164936423, -0.0128029836, 0.0210210066, -0.7116084695, -0.8251940608, -1.1668734550, 0.0441617630, -0.0610226132, -0.0359824710, 0.1949941069, 0.0391263515, -0.1283405870, 0.1816061884, 0.0723781884, 0.1970861852, -0.0607923158, -0.0402179100, 0.0163576026, 0.1364208907, -0.0487569906, 0.0674077719, -0.0215152260, -0.2249115705, -0.5736488104, 0.0257687923, -0.1774105132, 0.0662435517, 0.2848091125, 0.1502429992, 0.2395241112, 0.1179226190, 0.0884669796, 0.1797770262, 0.1190066189, -0.1643189490, -0.1220483780, 0.0505531393, 0.0258575659, -0.0406904481, 0.0125464108, 0.0904202312, -0.0122325486, 0.2108976692, 0.0654945970, 0.2736647427, 0.1090266556, 0.0425303355, 0.2370393872, 0.0310377218, 0.0274873003, 0.0954238102, 0.0144077959, 0.0771376416, -0.0872033089, -0.0607674271, 0.0443058349, 0.0352347046, 0.2998811901, -0.1033146158, -0.0167237781, -0.0036234171, -0.0866403878, -0.0193581413, -0.0185322501, -0.0094051203, -0.1739307344, 0.0888611823, -0.0893816724, 0.0906600952, 0.0799593478, 0.0281508639, -0.1100621521, -0.1022781432, -0.0659901053, -0.0498024486, 0.2475036532, 0.1721814722, 0.2617579401, -0.0933721289, 0.0359498300, -0.0102149900, 0.0709360838, 0.0577030368, 0.0239813440, -0.2958672345, 0.0648421869, 0.1275730878, 0.1939601153, 0.3926847577, 0.0428495407, -0.0882103071, -0.0643386170, -0.1799266487, -0.3606285155, -0.0250216629, -0.1489120275, -0.1968609244, -0.0113394121, -0.3543880880, -0.0825419948, -0.2851676643, -0.4588530660, 0.2657983303, -0.2428844273, -0.4416139126, 0.0391152762, 0.0283988677, 0.0599115118, 0.0198324900, 0.0682170242, 0.1155637503, 0.3906317651, 0.2227741182, 0.3382416964, -0.0351148769, -0.1326725632, -0.0863818228, -0.4333611131, -0.0195678975, 0.0229846556, 0.2460361868, -0.3221777678, 0.0971405804, 0.0262419041, 0.0255313255, 0.0306069069, -0.1208820939, 0.0020342011, 0.0269205756, -0.4133909941, -0.0486163944, -0.0128220022, 0.2450360209, 0.1508699656, -0.5045212507, -0.0249503851, 0.0607679002, 0.0846878961, 0.0633006394, 0.1471851170, 0.0484272949, -0.1188449934, -0.1277184188, 0.0729576498, -0.1308595687, -0.0224578977, 0.0426296443, -0.4669702053, -0.5728869438, 0.2861500382, 0.0489237756, 0.0329121724, 0.1067786440, -0.0097581344, -0.0119866431, -0.0230234545, -0.0910603553, 0.0344370082, 0.3128358126, -0.0284749437, 0.0656567067, 0.0520907678, -0.0558133051, -0.0030811287, 0.1048630551, -0.5295104980, 0.1771116555, 0.1975161582, -0.2111707628, -0.1958882958, -0.1623996943, -0.4000069797, -0.1331095695, -0.1441578567, -0.0095437197, 0.0572760366, 0.3711819053, -0.1746333838, 0.2570452988, -0.0219936948, 0.1622297764, -0.0762193948, -0.0698171705, 0.1082316935, -0.0179150421, 0.0727565065, 0.1766596138, 0.1226869002, -0.1176122576, 0.2881124020, -0.2283811718, -0.2275753915, 0.0567355677, -0.1100138649, -0.0427296981, -0.0590175763, -0.0622611344, 0.0125344284, -0.0631118789, -0.0550355054, -0.0605151542, 0.0967967063, -0.0020995396, 0.0426417962, -0.0104162460, 0.2821827531, 0.5310840011, 0.1044655889, 0.1128126755, -0.0658128336, -0.1101116240, 0.1459755599, 0.2857498229, -0.0285770968, -0.0871133879, -0.0455901176, -0.1844705641, -0.0296621881, -0.1705422848, -0.2385546565, -0.1111954525, -0.0273251031, -0.0240264516, -0.0169588123, 0.0506819300, -0.2054939568, 0.0299662929, -0.1566206217, 0.1176591441, 0.1306183636, 0.0576602928, -0.1162495613, 0.0820621774, 0.0612214021, -0.1806494892, -0.0981130376, -0.1193152592, 0.0116300620, 0.0858763382, -0.0467878729, -0.1497520208, -0.0555962548, 0.1784049571, -0.0500834547, -0.0123259323, 0.1354229003, 0.0641528964, 0.0274029020, 0.1877307594, 0.1895480156, 0.1260828823, 0.0374972187, -0.2052485496, -0.1707027406, -0.1337128729, -0.4172121584, -0.0028483497, 0.0046316977, -0.0554874241, -0.0214874931, -0.2773827016, 0.2053768784, -0.1724709272, -0.2616328895, -0.2074037641, 0.2056579739, 0.0481319055, 0.2099677920, 0.2125735581, 0.1289060712, 0.1165890172, 0.1812988818, 0.1434625983, 0.0912407413, 0.0282570459, 0.0127762761, 0.1212697625, 0.1339660734, -0.0518959612, -0.0021302286, -0.1454929113, -0.1680796593, -0.0651566237, -0.0453854501, -0.0158660430, -0.0083844177, 0.0009742831, -0.0714906454, 0.0477942266, 0.0256583393, -0.0350277834, 0.4389529824, 0.5300787687, 0.1393451095, -0.0590063520, -0.1655495316, -0.0970693156, -0.0512449592, -0.0926839933, 0.0628987625, -0.0683745816, -0.0388979353, 0.0883355737, -0.0835340098, -0.0705942884, -0.1197756901, -0.1031307802, -0.1695011407, -0.1618652046, -0.3587346375, -0.1743463278, 0.0725193471, 0.4824039340, 0.5163024664, 0.3354505599, 0.0781961009, 0.0554519892, 0.0005554796, -0.0033652664, -0.0228665937, 0.0744696334, -0.1160931364, -0.0615589768, 0.0620620176, -0.1201818138, 0.3161283433, 0.4164200425, -0.1378001124, 0.1504662633, 0.0505807027, 0.0206644796, 0.1000709012, -0.0381387398, -0.0615769960, 0.0416788757, 0.1122944504, 0.0351676866, 0.0079429792, 0.1264409274, 0.1033123285, -0.0335962884, -0.0725443885, -0.0218948312, -0.0160494428, -0.0526686199, 0.0458434485, 0.0156176640, -0.0616009906, 0.0582741797, -0.0019177895, -0.0113155302, 0.1262322962, 0.0716528818, 0.1140421852, 0.0210354533, 0.1248303950, 0.0278755166, 0.0132171595, 0.1106487438, 0.0771756023, 0.0506105907, 0.0552134886, 0.1132816598, -0.0130544696, -0.0275803059, 0.0151342554, -0.0454519764, 0.0886312872, 0.0736923441, 0.0168878287, 0.1539463699, 0.0865418166, 0.0147120859, 0.1637469530, 0.0531023405, 0.0042436295, -0.0737937242, 0.0430697985, -0.0689311624, 0.0267452095, -0.0164642129, -0.0127171595, -0.0228764880, -0.0134257963, 0.0281295851, -0.0348494872, 0.0189798754, 0.0508821122, -0.0354212485, 0.0025998643, 0.0618480854, -0.0011481919, -0.2664023340, 0.1052107438, 0.1000548527, 0.0538650975, 0.1177189723, 0.0193556640, 0.0581484661, -0.0503723025, 0.0931150392, -0.0386464186, 0.0796331316, 0.1109768227, 0.0387019329, 0.0672982708, 0.0442943834, 0.1438504308, 0.1144275367, 0.1592895240, 0.0898437127, 0.0009802376, 0.0951035619, -0.0989839882, -0.0532766357, 0.0220391843, 0.0347140282, -0.0688270405, -0.0407052599, -0.0633793473, 0.0090342490, 0.0232293494, 0.0808660984, 0.1224389076, 0.0084943902, 0.0367602520, -0.0228918456, 0.0641442016, -0.0097707268, -0.0354021974, 0.0027069817, 0.0073816092, -0.0458966568, -0.0075603360, -0.0353844985, -0.0008853106, 0.0199748557, 0.1190558150, -0.0390631892, -0.0379774570, 0.0947511047, 0.0014686501, 0.1204435229, 0.0836369246, 0.0097219534, 0.0880231559, -0.0242844000, 0.0626351237, -0.0395863131, 0.1021048799, -0.0910120532, 0.0220238641, 0.0066536618, 0.6077111363, 0.1339586079, 0.1641856581, 0.0814692453, 0.0379956029, 0.0412862003, -0.0525101461, 0.1078785509, -0.0704530999, -0.1066585407, 0.0305953529, -0.1100148782, -0.0629456416, 0.1011397392, 0.0066980026, 0.0141311809, 0.0915123746, 0.0492196567, -0.0002918793, 0.1486886740, 0.0357579663, 0.0608275533, 0.0312611498, -0.0346688032, 0.0214373711, -0.0385130979, 0.0852582455, 0.3836430013, -0.0426064059, 0.0938689709, -0.0246515255, 0.0224248301, -0.0828610733, -0.0061108824, -0.0812340230, 0.0112303942, 0.1431663930, 0.0855859444, 0.1291786432, -0.1556431800, 0.1068814993, 0.0855260715, -0.0186410043, 0.0292289965, -0.1048750803, 0.0040535796, -0.0626142770, -0.1292797327, 0.0408985056, 0.0383924507, -0.0939315781, 0.0343483835, 0.0445703864, 0.0630023032, -0.0977295339, 0.0590690114, 0.1558991075, 0.0330595188, 0.1031370685, -0.0136589203, 0.0684965104, 0.0298884921, 0.0062310463, 0.0063079237, 0.0657616109, -0.0403686203, 0.0222707503, 0.0086782230, -0.0516673848, -0.1694483608, 0.0586446859, 0.0231490247, -0.1106938496, 0.0369729027, 0.0450076312, -0.0846973285, -0.1319367588, 0.0082348054, 0.0347859785, -0.0252923891, 0.1068306044, 0.1579836458, 0.1164932698, -0.9224781394, 0.0538067855, -0.0340446718, -0.0332736447, 0.0642865077, 0.0742738619, -0.0285040140, 0.0570937693, 0.0934803784, 0.1613607556, -0.0605847128, -0.0004048356, 0.0236893706, -0.2157866359, 0.1285953373, 0.1566812545, -0.1915344596, -0.0904724300, 0.1196008250, 0.1240134090, 0.1029702723, 0.0270387288, 0.0781839415, -0.0107973889, 0.0719630346, 0.0393895060, -0.1035703942, -0.0705995560, 0.1719821990, -0.1497485638, -0.0101221250, 0.1302028000, 0.1054715291, -0.0431184471, 0.0878305882, 0.0935487300, -0.0693452284, -0.0507969223, -0.0300918799, -0.0724442527, 0.0197687075, -0.1001909748, -0.0119678294, 0.0815865844, 0.3145314157, 0.2854899764, 0.1520379782, 0.0095886700, -0.0560868941, 0.1094485000, 0.0429832488, 0.0914122239, -0.0051984051, 0.1693090498, 0.2063962370, 0.1391624212, -0.0150866704, -0.0232503135, 0.1614810973, -0.0165987369, 0.0238049999, 0.8762125373, 0.1974579841, 0.2140451372, -0.0477346145, 0.2092984021, -0.0010727200, -0.0337300450, 0.0690965652, 0.0469581224, -0.0564161427, 0.0461047515, 0.0709417090, 0.1475630105, 0.0770794153, -0.0818828940, 0.1782772094, -0.0297378339, -0.0908513367, 0.1867154837, 0.2780894935, 0.0767754689, 0.0634553507, -0.0816344395, 0.1535967737, 0.0279129948, 0.0671834573, -0.0119309183, 0.0924009234, 0.0822397694, 0.0000185599, 0.0591499023, 0.0758170560, 0.0185924470, 0.1259654611, -0.0150395492, -0.0732747465, 0.0661565438, 0.1059797406, -0.0518658124, -0.1938175261, 0.0168477129, 0.0123563148, -0.0409289524, -0.0880844966, -0.0157628357, 0.0027771331, -0.1519214809, -0.1071962863, 0.1015502810, -0.0416998640, -0.0311866533, -0.0334076658, -0.0322551131, -0.0230504666, -0.1198226884, -0.1375640035, -0.0297207553, 0.0174669400, 0.0807065442, 0.1077708974, 0.1180479079, 0.0065496927, 0.0311857946, 0.3526021540, 0.0819968581, 0.0129680540, 0.1476538926, 0.0922242031, 0.1083890796, 0.0558336116, 0.0345167294, 0.0883701891, 0.0681408122, 0.2835432291, 0.0709904209, -0.0082952948, -0.0061304099, -0.0534473211, 0.0179247782, -0.0837519094, 0.0135356626, 0.1835345924, 0.1791054457, -0.3346497416, 0.0569765121, 0.0022440865, 0.0152756674, 0.0378743075, 0.0167457089, -0.0004926925, 0.1666629761, 0.0631708503, 0.0254260469, -0.0147057641, 0.0280991495, -0.0473483093, 0.0717500895, 0.2358225286, 0.0652106777, 0.0937042013, 0.1074821874, -0.0958751515, 0.1486194432, 0.0103216199, -0.0754523799, 0.0760756508, 0.1167990789, -0.0371937752, 0.0699698702, 0.0517847389, 0.0714331567, 0.1243246421, -0.1180489361, -0.1396313310, 0.1514008641, -0.0510902330, -0.0760218427, 0.1806943417, 0.1095363721, -0.1063159555, 0.0689425319, -0.0305131376, 0.0281911511, 0.1776898801, 0.0762348697, 0.0023742865, 0.4059638381, 0.6249192953, 0.4564726055, 0.1390462667, -0.0577436984, 0.0249765124, 0.1200517640, 0.0965206027, -0.0363700129, 0.2535099089, 0.0612979457, 0.1178127974, 0.0406998172, -0.0366693437, -0.0245975684, 0.0984162688, 0.0142947296, 0.0151814651, 0.6508684754, 0.1739142090, 0.1381537467, -0.0487256721, 0.0511730053, -0.0215984359, -0.0557338297, 0.0324175470, -0.0233016182, 0.1201544777, -0.0056096041, 0.0040412382, 0.2601948977, 0.0242359396, 0.0720144287, -0.0845263451, -0.0314302482, 0.0968997553, 0.0286981892, 0.2224998325, 0.0704929456, 0.0881377384, 0.0881879479, -0.0896541551, -0.0467860289, -0.0441810079, 0.0282743536, -0.0985518247, 0.0588559397, 0.0663304105, -0.0067764116, 0.0331989527, 0.0523056425, 0.0067831920, -0.0182756688, 0.0013416399, 0.0976936147, -0.0619882233, -0.1205792204, 0.0952457413, 0.0428537093, -0.0429315567, -0.0204642192, 0.0544734597, 0.1397327781, 0.0121398550, 0.0227489956, 0.1281073391, 0.0948081017, -0.0376264863, -0.0189937651, 0.0315578803, -0.0190097932, 0.1079558358, 0.0381119922, -0.0348459445, 0.0971216932, 0.0506116673, 0.0189596675, 0.1183435097, -0.0599534661, 0.1457508653, 0.1338009983, -0.0521812737, 0.0247250609, 0.0595425889, -0.0226543024, 0.0260206088, 0.0605797768, -0.0614849478, -0.0540746935, 0.0076002148, 0.0005342303, 0.0423019975, 0.1196844727, 0.0567426905, 0.0130298017, 0.0243915785, 0.0134051703, 0.0697459653, -0.1181324646, -0.0255205780, -0.0224206150, -0.4852201641, -0.0411537737, 0.0746666864, -0.0566491187, -0.0439836234, 0.0556431860, -0.0483191758, -0.0597463958, 0.0448643789, -0.0439581983, 0.0755059272, -0.0152445380, 0.0778399408, -0.0372657664, 0.0234831255, 0.1339068860, 0.1422861665, 0.0647206232, 0.1615980566, 0.0095948465, -0.0595523268, 0.0426354110, 0.0660913959, -0.1050832793, -0.0729444250, 0.0063802954, 0.0331376716, 0.0041627185, 0.0471029468, 0.1342936605, 0.1183608770, -0.0485064946, 0.0285739116, 0.0228220262, -0.1188450754, -0.0292443186, 0.0462657288, 0.0642734319, 0.0573620610, 0.0523766875, -0.0355150439, -0.0568499714, -0.0788637400, -0.1763338447, -0.0551281907, 0.1362101138, 0.0275671147, -0.0286525600, 0.0823616907, -0.0636111423, -0.0087407259, 0.0689979419, 0.2163720131, 0.0036125011, -0.2068006694, 0.0132266656, -0.0203870311, 0.0310907084, -0.0650724173, -0.0615202039, -0.0141266044, 0.3081268966, -0.0561422072, 0.0251298714, -0.0337074511, 0.0359013416, -0.0303180311, -0.0582192913, 0.0473562218, 0.0606279038, 0.0188998040, 0.0073292167, -0.0982583687, -0.0968962982, 0.0137011828, 0.0555577911, -0.0769143701, -0.0215129424, 0.0282289200, -0.0846579596, 0.0035165444, 0.1064203978, 0.0314235315, -0.0980315134, 0.1123780385, -0.0364666991, -0.0255473442, 0.0943593979, -0.1159946620, -0.0396383479, 0.0064519565, -0.0436350778, -0.0549309626, 0.0077999895, 0.0044562225, -0.0538961552, 0.0608426705, 0.0133258915, -0.0158535670, 0.1301372349, -0.0493175313, -0.0427285768, 0.0270688646, -0.0097194500, 0.1416964531, 0.0571318306, 0.0182397086, 0.0664232150, -0.1099964231, 0.0021586791, 0.0605905056, 0.0443887450, 0.0143004423, -0.0107463291, -0.0406157188, 0.0839848965, 0.1562605500, -0.1200372353, 0.1656986326, 0.1781963110, -0.0136903040, -0.0100568458, -0.0741512105, -0.2155323923, -0.0578788109, -0.0294966195, -0.0840854719, 0.0483615771, 0.1806324124, 0.0727053359, 0.0766483843, 0.1663834453, -0.0144205438, 0.0294388365, 0.0901949257, -0.0627859682, 0.0437084027, 0.0059804083, -0.0092608314, 0.0051208227, 0.0371012017, 0.1904684007, -0.0647752583, 0.1957392097, 0.3861605823, 0.0387845486, -0.0594522506, -0.0281503834, 0.0617627725, -0.0210495219, -0.0535478145, 0.0211740304, -0.0102784242, -0.0015437789, -0.0024572599, 0.0515249148, 0.0520371273, 0.1645673364, 0.2294748425, -0.0744950920, 0.3496852219, 0.0414383672, -0.0569653921, 0.0012704835, -0.0450481661, 0.0020528557, 0.0373638943, 0.0488756411, 0.0931624994, 0.0470237620, 0.0523444526, 0.0700413734, -0.1325082034, -0.0368662402, 0.1098369211, 0.0050145024, 0.0223137233, -0.0852825046, 0.0995088741, -0.0388413854, -0.0213912148, -0.0275269505, -0.0035106419, 0.0310433824, 0.0477162488, 0.0609324723, -0.0145873874, 0.6970772147, 0.4993194044, 0.2521095872, 0.0144067584, 0.0008152497, -0.0724393427, 0.0466304459, 0.0485888422, -0.0230766684, 0.0642350093, -0.1252846420, 0.1850444078, 0.0218987670, -0.0810327977, -0.0120962914, 0.0357630886, 0.0302388109, -0.0781761557, -0.2923572958, 0.2076433748, -0.0738820136, 0.0514686070, 0.0818394795, -0.0008173421, -0.0005012235, 0.0088003902, 0.0519712567, -0.0171865821, 0.0256080013, 0.0528040975, 0.0646139458, 0.0120649980, -0.0428819321, -0.0082671354, -0.0543292277, -0.0847647935, 0.0914546847, -0.0060328748, -0.0410592556, -0.0059386999, 0.0183209684, 0.1138862371, -0.0432752855, 0.0164717529, 0.1336427033, 0.2138800770, -0.0878489241, 0.0324448086, 0.0228344407, -0.0157358255, 0.0387332588, 0.0533658117, 0.0568601936, 0.0049827145, 0.0518744327, 0.0445524603, 0.1466110051, -0.0567355342, 0.1134199053, 0.1263260245, -0.0519809648, 0.0200924315, 0.1056366786, 0.0144164786, 0.0402235836, 0.0223192573, -0.0017600260, 0.0588545911, 0.0329583175, 0.0092684319, 0.0909525901, 0.0123511422, -0.0826458484, 0.0017690057, -0.0405058749, -0.0588808432, 0.1876820028, 0.0584129654, 0.0453560501, 0.0351864807, -0.0040853503, -0.0112879220, 0.1061851084, 0.1196103692, 0.0772925243, -0.0646053925, -0.0685536787, -0.0555375181, 0.0128954062, 0.0533184335, -0.1039267033, -0.0017237896, -0.0999197736, -0.0136071313, -0.0897576958, -0.0769033656, 0.0702556297, -0.0559757762, -0.0077259578, 0.0767685696, 0.1177657470, -0.3527564406, -0.0253458302, -0.0019081660, -0.0428893752, 0.0892518833, -0.0193110406, -0.0168050788, -0.0953597650, 0.1108125299, -0.0127919149, -0.0197339784, 0.0145786637, -0.0069498955, -0.1117966399, 0.0832128599, 0.0412103459, 0.0529282354, 0.1472351104, 0.0828543529, 0.0423856936, 0.0205244068, -0.0515167713, 0.0783995241, -0.0469723754, -0.0335579365, 0.1653165221, -0.0012307635, -0.0736915991, 0.0477091335, -0.1103220955, 0.1864740849, 0.0274834093, 0.0828570724, -0.0465166941, 0.1192520037, 0.0334889702, -0.0357443281, -0.0397453830, 0.0676053241, 0.0512621924, -0.0244646724, 0.0449972674, -0.0756744295, 0.1301002502, 0.3554561436, 0.2062487155, 0.1237969771, 0.0324176811, -0.0336545333, 0.1042323932, 0.0360110551, -0.0124551030, 0.0078494735, 0.1667284518, -0.0492727645, 0.0677762404, -0.0585213453, -0.0718632713, 0.0727378204, 0.0303599071, 0.0621713400, 0.8366444707, 0.0365343578, 0.1568212807, 0.0311554689, 0.0951881185, -0.0583423004, -0.0268646199, 0.0537694432, -0.0451412573, 0.0473089069, -0.0450233780, -0.0229605064, 0.0909779295, 0.0206225403, 0.0265823454, 0.0205545798, 0.0074284682, 0.0137988469, 0.0411246121, 0.1055091396, 0.1250897348, 0.0153152607, -0.0303905345, -0.0490569435, 0.0162416883, -0.0424478799, 0.0552755520, -0.0022890542, -0.0378999002, 0.0171553642, 0.0962098017, 0.0134424865, -0.0734596401, -0.0220903587, 0.0113367978, -0.0364663415, 0.0223671012, 0.0346233025, -0.0956247002, 0.0659868792, -0.0516454130, 0.0231128037, 0.0634941161, 0.0779277980, 0.0270464830, 0.1126011014, -0.0014961538, 0.0598665550, 0.0208329149, 0.0846146941, -0.0584961325, 0.0344386213, 0.0126675433, 0.0220056232, 0.0518179201, 0.0240721498, 0.0987312272, -0.0028408235, -0.0225195102, 0.0901385620, 0.1185712293, 0.0538350195, 0.0884745345, -0.0295976531, 0.1659400910, 0.0028467770, -0.0439434610, -0.0872343406, 0.0737564787, -0.0992748961, 0.0564431995, 0.0135984365, -0.1456151456, -0.0690523908, 0.0246421192, 0.0128747830, -0.0501518883, -0.0596552864, 0.0128117353, -0.1075496525, -0.0528782979, 0.0001011845, 0.0000758282, -0.1269800663, 0.0926262513, 0.0720369145, 0.0118702520, -0.0003095267, 0.0153131802, 0.0118502732, -0.0855723843, 0.0699827373, 0.0104683880, 0.0666769147, -0.0559520274, 0.0372774154, -0.1010967493, -0.1078980565, 0.1486605406, 0.0171476658, 0.1125045419, 0.1452711970, -0.0584677570, 0.0734230503, -0.0110400124, 0.0785858110, -0.0691306815, -0.0338808782, -0.1054605767, -0.0515024289, -0.0170437470, 0.0885707811, -0.1083938181, 0.0976459086, 0.0870836303, 0.0933498740, -0.0088822264, 0.0250794720, -0.0040081330, -0.0226976778, 0.0182261840, -0.0609126873, 0.0287938472, 0.0499487855, -0.0392736085, 0.0282082073, -0.2283637673, -0.1608455330, 0.1940240562, -0.0152387433, 0.0264592655, 0.0504732579, 0.0655269325, -0.0305778030, 0.0405598208, -0.0084337303, 0.0732093677, -0.1372227073, 0.0294945650, 0.0111702550, -0.0332280844, 0.0313042440, 0.0231543183, -0.0285995286, 0.0036319413, -0.0048555378, -0.0490724407, 0.2010621130, 0.0031086789, -0.0140236430, -0.0318139344, -0.0273495093, 0.0530281253, 0.0401788577, -0.0740130097, -0.1074243635, -0.1971666366, 0.0171382893, 0.0399434566, -0.0578376204, -0.0063844132, 0.0416709110, -0.1538369507, -0.0029652074, 0.0140812574, 0.0883193463, -0.0179780535, -0.0114976540, 0.0224342700, -0.0204555169, 0.0227183849, 0.0927678794, -0.0273325033, 0.0647562742, 0.0228562597, -0.0555114970, -0.0141603723, 0.0957429484, -0.0838731825, -0.0069956183, 0.0748167560, 0.0157044660, 0.0859651491, -0.0439883582, 0.0211675167, -0.0233818442, 0.0433860570, -0.1025454178, -0.1183246896, 0.0969597846, 0.0473527908, -0.0456582494, 0.0904046446, -0.0221338160, -0.0646463558, 0.0103712408, -0.0600483790, -0.0366968662, 0.0334789492, -0.0210608281, 0.0327206179, -0.0460599810, 0.1480755359, 0.1283458471, 0.1055005193, -0.0701395571, 0.0896833241, -0.0417606570, 0.0751719400, 0.0454091839, 0.1534963846, -0.0278724339, 0.0308084749, -0.0790581480, 0.0280687902, 0.0621630512, -0.1133491844, 0.0754315108, 0.0364151262, 0.0336861499, -0.0808556005, -0.0772619992, 0.0669194385, 0.0095509132, -0.1350242049, 0.2062376291, 0.1209377050, -0.6318091750, -0.0175772458, 0.0970556587, -0.0041686376, 0.0451397747, -0.0205796752, -0.1393731534, -0.0032330193, 0.0554218888, 0.1722019762, 0.0616868064, 0.0306955762, 0.0047134217, 0.0060557364, 0.0271859895, 0.1908485740, -0.1479585916, -0.0138911372, 0.1568161696, -0.0054253959, 0.0309923142, -0.0006036413, -0.0642971247, -0.0707508475, 0.0077003278, -0.1329548657, 0.0203235634, -0.0342207439, -0.0481002741, -0.1178514957, -0.0432891995, 0.0768800452, -0.0554917157, 0.0105589069, 0.0996984541, 0.0785379112, -0.0444869772, 0.0253011063, 0.0017397333, -0.0748192668, -0.0121881366, -0.0513890609, 0.0456610769, 0.4202139974, 0.6403236985, 0.5467669964, 0.0364093706, -0.0727476925, 0.0015374746, 0.1122304797, 0.0280281641, -0.0247125998, -0.0112897577, 0.1014800295, 0.0094458042, 0.0773183927, -0.0159733500, 0.0523368269, 0.0968769044, 0.0682985857, -0.0226229057, 0.3513891697, 0.1414280534, 0.1200385466, -0.1030659080, -0.0411266014, -0.0623735897, -0.0398525111, -0.0610581934, 0.0421093591, 0.0422856137, 0.0128289629, 0.0045678280, 0.1206573173, 0.0146301929, -0.0007797432, -0.0082863718, -0.0482294746, 0.0004546871, -0.0688176379, 0.0661291033, 0.1266926229, -0.0339342952, -0.1567656696, -0.3630757034, -0.0268845148, -0.2562740743, 0.0107088797, 0.1341359168, -0.0713696703, -0.1386404932, 0.0359075591, 0.0337097310, 0.1050995588, 0.0041362811, -0.1102926433, -0.0242681559, 0.0870616511, -0.0636406243, -0.0833492950, 0.0274425838, 0.0399171710, 0.2691627741, -0.0277599692, -0.0553012155, 0.1747079939, 0.0120536285, 0.0519557968, 0.0863279551, 0.0984453931, -0.0667717829, -0.0531065986, 0.1770377755, 0.0022406776, 0.0062156292, -0.1399976909, -0.0965050831, -0.0456132740, -0.0316741802, 0.1465386301, 0.0476519465, -0.0398514196, -0.0292810239, -0.2171420157, 0.2470501661, -0.0331332982, -0.0699331164, 0.1336637437, 0.1684090346, 0.1442124844, 0.1856706589, 0.1308161318, 0.0723110288, 0.3462608457, 0.1963905394, 0.1524374932, 0.0670025274, 0.0698593706, 0.2468234450, 0.1180500388, 0.0334271453, 0.2506469488, -0.1137070134, -0.3545362055, -0.1086634025, 0.1366679370, -0.0426624082, -0.0625890270, -0.0029452860, -0.0934891030, -0.0480794646, -0.1195227876, -0.0271332506, -0.3655736446, 0.1636508703, 0.0471946299, 0.1779214740, 0.0485484563, -0.1516385674, 0.0409023166, 0.0416495129, 0.4767987728, -0.0227750447, 0.1711765826, -0.0145690273, -0.1892387718, 0.1416844279, 0.0429560281, 0.0400791205, 0.0350075588, 0.1610186398, 0.1092812419, 0.0118698953, -0.2420373261, -0.0377986878, 0.1402579248, -0.0673212707, -0.1682781875, 0.1428410560, 0.0675692484, -0.1432456374, 0.0871209502, 0.1611928940, 0.0243769921, 0.0917908102, 0.0698754415, 0.1523597687, 0.3144265413, 0.4074930251, -0.1754052043, 0.0101288892, -0.0447728001, 0.0072210487, 0.1566405892, -0.0821316317, -0.1019878685, 0.3366717994, 0.1479737461, -0.0716219395, 0.1571508646, -0.0652065948, -0.1445262581, 0.2728983462, 0.1142725572, -0.0829245001, 0.9258043766, 0.0640270784, -0.0633396134, 0.0247124862, -0.1107409075, -0.0751745701, 0.1786145419, 0.0575050600, 0.0783041418, 0.0971635804, 0.1419274509, -0.0782737434, 0.2289816290, -0.1474343240, 0.0878251046, -0.0740398839, 0.1068628877, 0.0780946389, -0.1634563357, 0.0481189229, 0.1402126998, 0.0936992168, 0.0384582542, -0.0376311652, 0.0668790117, 0.0324815325, 0.0377463140, -0.0345926173, 0.0803640410, 0.0900941417, -0.0617835745, -0.0064281761, -0.0420034304, 0.0601688810, 0.0386360139, 0.0445621200, 0.0068566138, -0.0543309227, 0.0238834452, 0.0456960723, 0.0880162939, 0.0889551789, 0.1424277574, 0.0724274814, 0.0826582387, 0.0126564894, 0.0585266016, 0.0860674083, 0.0627679080, -0.0347713530, 0.0114871245, 0.1518277228, 0.0260135829, 0.0656530783, 0.0350412577, 0.1375537068, -0.0112442644, 0.0555920154, 0.1364919990, 0.1185992286, 0.0612868145, 0.0544926003, 0.0259316582, -0.0473851897, 0.0893221051, 0.0149421655, -0.0724786073, -0.0840019137, -0.0053405706, -0.1352846175, -0.0164582245, -0.0617603622, -0.0139260329, -0.0718817487, -0.0050662286, 0.1056094915, 0.0302634686, -0.0664738864, 0.0395236798, 0.0509428009, 0.0219886117, 0.1053162068, -0.0560057648, -0.1512372196, -0.0266835131, 0.0381019078, -0.0046650702, 0.0132930819, 0.0710035861, 0.0166284535, -0.0624982156, 0.0205235519, 0.0538837500, 0.0649278238, 0.0356313139, 0.0777885467, -0.0153626464, -0.0693818629, 0.1397414654, 0.2890987396, 0.1238987520, 0.0443353951, 0.0334344991, -0.0447487868, -0.0662749112, 0.0209292732, -0.0017629681, -0.0652751699, -0.0360295661, -0.0988155231, -0.0826100782, 0.0564326681, 0.0139597403, -0.0907529369, 0.0649980903, 0.0987753868, 0.0553788655, -0.0174335726, -0.0386874564, -0.0037827175, 0.0327576473, 0.0610582121, -0.0067814244, -0.0293701310, -0.0553724132, -0.0322759338, -0.1163614616, -0.0990803018, -0.1674343497, -0.0296979956, 0.0136359148, 0.0947976783, -0.0710384771, 0.0319034271, 0.0443746373, -0.1192563698, -0.0336186625, -0.0867410079, 0.0029850756, 0.0788836107, 0.1044587269, 0.0131099969, 0.0223105084, -0.0104208998, 0.3317826092, 0.0226466414, 0.0060927565, 0.1566250920, -0.0499320552, 0.0114886826, -0.0610726997, 0.0190783609, -0.0949161649, -0.0437058918, -0.0559885725, 0.0532451272, -0.0424355194, -0.0705176666, 0.1161889955, -0.0054402673, 0.0534104593, 0.0873488858, 0.0576496348, -0.0244798008, -0.0133563383, -0.0561074615, -0.1176722199, 0.0569150746, -0.0257521253, -0.0497483127, -0.2411800027, -0.3219543993, -0.0329322889, -0.2323068082, -0.0204787981, 0.0299704578, -0.0271310378, 0.0192800872, -0.0021852441, 0.0834105313, -0.0034339158, -0.0244474914, 0.0583495535, 0.0055072624, 0.0342922173, 0.0574879684, -0.0421763808, -0.1736623049, -0.0129011190, -0.0423107184, -0.3317744434, -0.2316369414, -0.0904733762, -0.0440818369, -0.2341099381, -0.0474553108, -0.0340532027, -0.1144567430, 0.0812028050, 0.0008325460, 0.0575149953, 0.0596944354, 0.0603795238, 0.0850326717, -0.0236744694, -0.1396244913, -0.6544753313, 0.0228444971, -0.0303103719, -0.0405376889, -0.1103163809, -0.0179414488, -0.0197244547, -0.0845766738, -0.0188417882, 0.0301171914, 0.2796381712, -0.1150918305, 0.0005786869, 0.0535409003, -0.1014891416, -0.0397276245, 0.0786384493, 0.2101677209, 0.1619137824, 0.0656781569, 0.1128184795, 0.1679402590, -0.0678448528, -0.0145769864, 0.0110896509, -0.0693843588, 0.0555043146, -0.0870617554, -0.0399679355, -0.0053975140, -0.0004575374, -0.0436103903, -0.0362906270, 0.0219311211, -0.0681924745, -0.0555314273, 0.0519673191, 0.1497816294, -0.0084918160, 0.0203422494, -0.1118912548, -0.0040516746, -0.1197322384, 0.0126814488, -0.0100922892, -0.0965471193, 0.0053613083, 0.0976823121, -0.0246870965, -0.1645048559, -0.0154575044, -0.0550720841, -0.1251707077, -0.0455387905, 0.0138478847, 0.1846312881, 0.0003547898, -0.0011390160, -0.0323171727, -0.1312507689, -0.2008970380, 0.1258457601, 0.1228815094, 0.0858307779, 0.0935173780, 0.0410683192, -0.0003197217, 0.1269817501, -0.0359187685, -0.0389576368, -0.1260655820, 0.1484855115, 0.0905973464, -0.1521786302, -0.0458944887, -0.0476679839, 0.0207689013, 0.0275781229, -0.0947822556, 0.0931659490, 0.0646942854, 0.0142503576, 0.2532716393, 0.2826817930, 0.0861716047, -0.0289681815, -0.0857856274, -0.0670420453, 0.0469489284, -0.0544983558, 0.0456140079, 0.1034076363, 0.1276009083, 0.1208305433, -0.0687738284, -0.0201199166, -0.0934215486, -0.0902172923, -0.0238419399, -0.1312562972, -0.1854624748, -0.7161976099, -0.0557098500, -0.0814350024, -0.0229313970, 0.0086331014, -0.0024691178, 0.0588207357, -0.0157346632, 0.0542503037, 0.0194315556, 0.0068323226, -0.0594988950, -0.0327465832, 0.0655898824, 0.0078427726, -0.0661150962, 0.0042228065, 0.0142940646, -0.0754932687, 0.0760123506, -0.0147222346, -0.0619510710, 0.0724975392, -0.0782207996, -0.0822229534, -0.0504562408, -0.0798964202, 0.0012152838, 0.0405557416, 0.0188664719, -0.0442081988, -0.0428903513, -0.0264560953, 0.0402543284, 0.0441433713, -0.0683876947, 0.0512222908, -0.0797472447, -0.0599166639, 0.0274816751, 0.0702780485, 0.0623326637, -0.0297941249, 0.0502796583, -0.0100045446, 0.0441032127, -0.0577945188, -0.0277950410, 0.0652840361, 0.0252447687, -0.0792699456, -0.0215565432, 0.0611720644, -0.0668321997, 0.0410625897, 0.0298255309, -0.0719989687, 0.0696960092, -0.0425787307, -0.0258268826, -0.0649656355, 0.0129354689, -0.0429575592, -0.0313970447, 0.0042331917, 0.0125362361, 0.0238687620, -0.0299511924, 0.0424484201, -0.0176110193, -0.0800402611, -0.0322434492, 0.0195917170, -0.0290828552, -0.0285574310, 0.0790026113, -0.0560752451, 0.0663925037, 0.0165339354, -0.0740145594, -0.0705460533, 0.0082790377, -0.0784871280, 0.0685175881, -0.0767602101, -0.0528852381, 0.0372724198, 0.0578128174, -0.0461647399, 0.0371422991, -0.0777685270, 0.0280789267, 0.0289002750, -0.0515887216, 0.0064914925, -0.0658630729, 0.0043194168, -0.0418369472, -0.0339226462, -0.0283337217, -0.0789002031, 0.0001440089, -0.0021893815, -0.0828171223, -0.0145212971, -0.0752100945, -0.0050159814, 0.0506867319, -0.0739927813, 0.0176185593, 0.0394810662, -0.0725544989, 0.0307922345, -0.0182694327, -0.0080418596, 0.0321680307, 0.0467469543, 0.0146270161, 0.0402452536, 0.0366911404, 0.0498174205, -0.0701666623, 0.0788965374, -0.0307473838, -0.0186749157, -0.0658730641, -0.0755021945, 0.0054995576, -0.0111469943, 0.0043932316, -0.0356059410, 0.0089883944, -0.0808048248, -0.0401112102, 0.0141340876, -0.0623449646, -0.0715424716, 0.0545230731, -0.0719135627, -0.0338864326, 0.0120353214, -0.0451708883, 0.0361053720, 0.0712645575, 0.0602419041, 0.0143437972, -0.0235518701, 0.0526515096, 0.1012586504, -0.1034947038, 0.0229326542, 0.1100940406, 0.1324796230, -0.0930317193, -0.0634816587, -0.0097965691, 0.0109906504, -0.0830780640, 0.0699379146, -0.0102043832, 0.0557339489, 0.1248791218, -0.0277049616, 0.0682393685, -0.0305035952, 0.0584942177, 0.0882328898, 0.0444430411, -0.0471730009, 0.0337170400, -0.0503848270, -0.0212951209, -0.0524583906, -0.0548759028, -0.0172996372, -0.0863610953, 0.0539744161, -0.0342079923, -0.0705138966, -0.0133215655, -0.1513246149, 0.0250255968, 0.0798656717, 0.1002647951, -0.1361629963, 0.0336678848, -0.0415630043, -0.0339178778, 0.0383978225, 0.0047807433, -0.0530462340, 0.0230009165, 0.0662264675, -0.0048023271, -0.0165851954, 0.1203864217, 0.0350279287, 0.1037974954, 0.2486990094, 0.0664878711, -0.0833614245, -0.0289723184, 0.0722560659, 0.0348174460, 0.0289693102, -0.0161294546, 0.0203684084, 0.0896171108, 0.2490713745, 0.0432092473, -0.0970246717, -0.0457251407, -0.0159272924, 0.0651954412, -0.0822945759, 0.0805300325, -0.0843188167, 0.0057010809, 0.0485479943, -0.0258233361, 0.1021163985, 0.0425474495, 0.1666090488, -0.2013172805, 0.1779240668, 0.1918647587, -0.1024527922, 0.0085461726, -0.0647105724, -0.0676121712, 0.0633179322, 0.0477184989, 0.0902609304, -0.0142124649, 0.0935569629, 0.0557803176, -0.0133178169, 0.0071203015, -0.0330317020, -0.0013387159, 0.0512183309, -0.0337704010, 0.0680838376, -0.0333718993, -0.0069062337, -0.0481437780, -0.0045808246, 0.0771781579, 0.0691770092, -0.0022702797, 0.0407068096, 0.2536908388, 0.2077850401, 0.0692131221, 0.0511271469, 0.0230949782, -0.0836444795, 0.0691702291, 0.0100933732, -0.0555293299, 0.1204232052, -0.0499112867, 0.1846623570, 0.0058693090, -0.0790924579, -0.0506971292, 0.0926075950, 0.0705909133, -0.0729985461, 0.1999114007, -0.0214503370, 0.1300953478, -0.0233624130, 0.3190730214, 0.1404027045, -0.0286398940, 0.0307840742, 0.0269573666, -0.0323548838, 0.1357848495, 0.0559270680, 0.1797128618, -0.0409994349, -0.0578630492, -0.0531059615, 0.0324557908, 0.0351672620, 0.0662230104, -0.0140090054, 0.0474185385, 0.0511279739, 0.0822666287, -0.0621267147, 0.0250106100, 0.0844670311, 0.0473109521, 0.0644046068, -0.0107703432, 0.0900321230, -0.0557931401, 0.1055269986, 0.0829162672, 0.0229236856, 0.0697508156, -0.0772070736, 0.1110259742, -0.0508676320, 0.0489435643, -0.0175073221, 0.1546126157, -0.0104715284, 0.0504061989, -0.0642947927, -0.0635826588, -0.0327128246, 0.1209206358, 0.0020392002, -0.0712793469, -0.0124493036, -0.0401368178, -0.0305002667, 0.0126044489, 0.0254050549, 0.0263538901, 0.0090074157, 0.0256824289, -0.0430496261, -0.0019301625, 0.0854594782, 0.0671552047, 0.1860469133, 0.2473319620, -0.0559451841, 0.1347436309, 0.0938396752, 0.1640921086, 0.1072725058, -0.0174354557, -0.0606808849, -0.0599427447, 0.0441534817, -0.0022024426, -0.0499693528, -0.0293672755, -0.0588430092, -0.0491134264, -0.1673102677, -0.0397959016, -0.0459363647, -0.2875218987, 0.0898133218, 0.0533366613, -0.4798138440, 0.0590664111, 0.0819794014, -0.0138103412, 0.0881044269, 0.0991011262, 0.0210171547, 0.0710468292, 0.0660452619, 0.1280244291, -0.0580771118, -0.1095155776, -0.0814562067, -0.1872995645, 0.0290431976, 0.2718074024, -0.0029285140, -0.1824256033, 0.0936920494, 0.1311678886, 0.0336870775, -0.0520409532, 0.1191739514, 0.0256079361, -0.0526140444, -0.0698211417, -0.0111096371, -0.0772302076, 0.0558899529, 0.0306254122, -0.0552157201, 0.0596627854, 0.0445048511, 0.0013979428, 0.0397405252, -0.0313699730, 0.0447335467, -0.0590608604, -0.0087131727, 0.0216616280, 0.1048320681, -0.0587948449, -0.0051939497, -0.4923574924, -0.2588863969, 0.4207642078, -0.0038344830, -0.0515787713, -0.0617931336, -0.0546127036, 0.1285836697, 0.0383333787, 0.0733034164, 0.0543418862, -0.1603471488, -0.0715311021, 0.0619432665, 0.0330859162, -0.1429655701, -0.0414274596, -0.0763856620, -0.1941271424, 0.0778475776, 0.1630256325, -0.1024652421, -0.1086800620, -0.0429582819, -0.1591524184, 0.0585968681, -0.0296113174, 0.0079750372, -0.0148517648, 0.0299201049, -0.0464226231, 0.0319934934, 0.0413855538, 0.1422622353, -0.0029293157, 0.0240064058, -0.0176259242, 0.0061133141, -0.0041388697, 0.0424351767, 0.0041331248, -0.0453385636, -0.1261110306, -0.1092644110, -0.1162401959, -0.0812132284, -0.0239725485, 0.0877684355, -0.0651473850, -0.0401674733, 0.1349833012, -0.0194346067, 0.0685443580, 0.0657087564, 0.0882669985, 0.1063828021, 0.1337410063, 0.1858997643, 0.2705739439, 0.0534539036, 0.1040012464, -0.0396418162, -0.0527914949, 0.0850719959, 0.0218149275, -0.0226220936, -0.1536886394, -0.0670887083, 0.0412144549, 0.0268065203, 0.0176021736, -0.0369559228, -0.3836256564, 0.0018825155, -0.0080877915, 0.0469231196, -0.0120357340, 0.0378594436, -0.0864275917, -0.0356610045, -0.0084313741, -0.1104849726, -0.0675741583, 0.0163884331, 0.0667040050, 0.0182366129, -0.0417024046, 0.0876819566, -0.0449268185, 0.0953927785, -0.0439081192, 0.0203434359, -0.0061979843, 0.0478838980, 0.0405729115, 0.0621638261, -0.0195518546, 0.1256018132, 0.1518883109, -0.0131163970, 0.2648450732, 0.2345325947, -0.1248923242, -0.0532361902, 0.0709020719, -0.1167115420, 0.0828235894, 0.0733544156, -0.2006766945, -0.0158104077, 0.2339127362, -0.0278034862, 0.1255376488, -0.0058815391, 0.0630923659, 0.0911966637, -0.2243470848, 0.3407290876, 0.0438328721, 0.0157626886, -0.0607609116, 0.0255142059, -0.0125667676, 0.0422228724, -0.0139172766, 0.0414920226, -0.1483430862, 0.0053770263, 0.0710172877, -0.2185804695, 0.0551672541, 0.2591512501, -0.1863320023, -0.0479589999, 0.0744161829, -0.1061156318, -0.0081779771, 0.0269442908, 0.0400507972, 0.0022845757, 0.0560279749, -0.0101053156, 0.0973146334, 0.0927184597, 0.6540490985, 0.7837303877, 0.5464041829, -0.1329013407, 0.0418564007, -0.0515248440, -0.1354280561, 0.0944565237, 0.0350007042, -0.1781822592, -0.1205208749, 0.1423919350, -0.0510384701, -0.0107175522, 0.0776458755, -0.0502621979, 0.0396343954, 0.0447135381, -0.4587358534, 0.0088253114, 0.2529939413, -0.0222226679, -0.0769694597, -0.0280197207, -0.1375861317, -0.1601866037, -0.1235966161, -0.0367995538, 0.0148905311, -0.0332774222, 0.0738459155, 0.1051672474, 0.1025723293, 0.1014342532, -0.0025262560, -0.0452790186, 0.2250873297, 0.0640219375, 0.0129600829, -0.0131381601, -0.0808744654, -0.0256277975, 0.1325250268, -0.0734648630, -0.1886986196, 0.2487679571, 0.0708554834, -0.0581376627, 0.1270417422, 0.0510314368, -0.1570599228, -0.0167930592, -0.0086188726, -0.0655942112, 0.0298530087, -0.0315467790, 0.0045499406, -0.0691999644, 0.0255976729, -0.0954596549, 0.0488800518, -0.0031302043, -0.0012543645, 0.0436751284, -0.0773084313, 0.0236524679, 0.1361580640, -0.0805710405, -0.0674750879, 0.0820921808, -0.0028618753, -0.0218506660, -0.1423342824, -0.1262008697, 0.1184134334, -0.0050512371, -0.0120750284, -0.0530406721, 0.0310990270, -0.0451982878, 0.1422784925, 0.0340153836, 0.1422338635, 0.1233305037, 0.0165354237, 0.1314372271, 0.0261765756, 0.0130141042, 0.0529766046, 0.0154060470, -0.1141374037, 0.1659278125, 0.1019839570, 0.0686212406, 0.0111148208, -0.1252222657, 0.0162870549, -0.1362289339, -0.1506515145, 0.0647111386, 0.0550299622, -0.4307832718, 0.1099168733, 0.0048882649, -0.0232775938, 0.0965193659, 0.0238630567, -0.0587539673, 0.0506870709, -0.0698494613, -0.0597448200, 0.0640995055, -0.1063102558, 0.0363413878, -0.0734852254, 0.3425645530, 0.1201499030, -0.1649836898, 0.0480772145, -0.0637024119, 0.1088856310, 0.0198521502, 0.0688686520, 0.0815695524, 0.0533165820, -0.0446912833, -0.0344304591, 0.0813679695, 0.0614883229, 0.1929860264, -0.0555347800, -0.0614108257, 0.1717917025, 0.0483604521, -0.0985334590, 0.1650941521, -0.0238125417, -0.0065477490, 0.0218284167, 0.0057912632, -0.0137436260, 0.0962270498, -0.0027444561, -0.0656179637, -0.1680744588, 0.0384232253, 0.0889658481, 0.0962568671, -0.0175050627, 0.0609381720, 0.0056717070, 0.0412130207, 0.0294716619, 0.1094722003, 0.0026981111, 0.0333527438, -0.0556685887, 0.0472640097, -0.0514710881, 0.0979769602, -0.0679254010, 0.0318583697, 0.7225657701, -0.0143327555, 0.0117066251, 0.0872852728, 0.2314016670, 0.0876010284, -0.0254881289, 0.0614741109, 0.0554276221, 0.0178066790, 0.1130295843, -0.0294026006, 0.0261180941, 0.0221681222, 0.0070448513, 0.0818283856, 0.0406794325, -0.0633223206, 0.0010554037, 0.2174639255, -0.0194686782, 0.0671731383, 0.0544170924, 0.0491572320, -0.0439073257, -0.0745512694, 0.0779717639, -0.0125980508, -0.0593119450, -0.0461939424, -0.0203091670, 0.0472945757, -0.0407159887, 0.0596842840, -0.0878731087, -0.0068216268, 0.0762105063, 0.0320428237, 0.0799505860, -0.0480608158, -0.1063191220, 0.0685961843, 0.0779316872, 0.0558204763, -0.0412426069, 0.0269473847, -0.0246756598, 0.0768047422, 0.1260435432, 0.0855197161, 0.0110979695, 0.0590325706, 0.0483184122, -0.0672333688, 0.0203749910, 0.0991684049, 0.0445478261, 0.0388501771, 0.0529958978, 0.0749790817, 0.0824418515, 0.1125876456, 0.0883014277, -0.0490082018, -0.0615496524, 0.1260307282, -0.0555104874, 0.0203655940, -0.0701828748, 0.0944753066, 0.0840058103, -0.0561848208, 0.0829896927, -0.0048078354, -0.0646497011, 0.0150168845, 0.0574564300, 0.0358820930, 0.0340546854, -0.0601177439, -0.0277877059, 0.0629273057, -0.0449674129, -0.0881326944, -0.0255145617, -0.0619871691, -0.0398794562, 0.0492452793, 0.0698112622, -0.0405588634, -0.1334537417, 0.0331831276, -0.0260102563, 0.0124579407, -0.0399743356, -0.0546861216, 0.0504579991, -0.1788411289, 0.0945070535, 0.0283098221, 0.1037749350, -0.0298973694, 0.0597478673, 0.0371288061, 0.0288924985, -0.0480436124, -0.0813349783, 0.0163589660, -0.0310985092, 0.0365437306, -0.0623813346, -0.0135992896, -0.0612407401, -0.1187393144, 0.0740022883, 0.0144746490, -0.0921585113, -0.0390675254, -0.0098837893, 0.0259598047, -0.0801917911, -0.0279516540, -0.0280995369, -0.0053810929, 0.0244358182, 0.0424573645, 0.0731257200, 0.0816136599, -0.0656493902, -0.0145701226, 0.0677919909, 0.0292293727, -0.0063061481, 0.0412503667, -0.0394464843, 0.1049067080, 0.1258473396, 0.0656586736, 0.0177645404, -0.0286739562, -0.0001123115, -0.0618291125, 0.0033988873, 0.0198348425, 0.7149096727, 0.0607768521, -0.1084011123, 0.0601032823, -0.0942031890, -0.0624057502, 0.0439708754, -0.0312176533, -0.0873559639, 0.0520557389, -0.0232386570, -0.0124010360, -0.0244181640, 0.0160353780, 0.0264783483, -0.1590967476, -0.1255986243, -0.0881600231, -0.0081602614, -0.0061559347, 0.1300261915, 0.0186113846, 0.0402053110, -0.0052615600, -0.0284232590, 0.0493131205, -0.1065749452, 0.0622187927, 0.0795734003, 0.0069656665, 0.0400963239, -0.0054998640, -0.0707977861, 0.0679943338, -0.0511912517, -0.1185068041, 0.0229469966, -0.0842279121, -0.1025311798, -0.0471726693, -0.0303952880, 0.0328069627, 0.0124979485, -0.0291580297, 0.0436170883, -0.0580026619, -0.1075517163, -0.0580029227, 0.1306325346, 0.0728583708, 0.0528071150, 0.0765600726, -0.0293061137, -0.0279040821, 0.0373293124, 0.0421626940, -0.0214291122, -0.0083136875, 0.0266299415, 0.0496842302, 0.0003533235, 0.1247056574, 0.0689245686, 0.1394198537, 0.0223349072, 0.1217163280, -0.0204240121, 0.1824227720, 0.0030136015, -0.0150278062, 0.1172585115, 0.0621243604, -0.0394382775, 0.0512065515, 0.0944280997, 0.1047531664, 0.0852951184, -0.0826322809, -0.0171185043, -0.1034079567, -0.0733299106, 0.0026440516, 0.1418665349, -0.1419090927, 0.0177352019, 0.1423952430, -0.0959063992, -0.0513511747, 0.0040181782, -0.0053921761, -0.0652620867, -0.0693479776, -0.1595097780, -0.0783403441, -0.0444447398, -0.0665641800, -0.0226823129, 0.1515953243, -0.0066999053, -0.0379141867, 0.2384801209, 0.1034339890, 0.1215998009, 0.0218670573, -0.0300595630, 0.1332038641, -0.0625235587, -0.0701187700, 0.1097791344, 0.0057774633, 0.0893479511, 0.1884970367, 0.0807799622, 0.0949683785, 0.1237024441, 0.1054650024, -0.0418975614, 0.0081734871, -0.0966951102, -0.1539134681, -0.0000946105, 0.0749058872, -0.0328103974, 0.0519391410, 0.0281897280, -0.0179720130, -0.1638914347, -0.0909299403, 0.3446219265, 0.0364941992, 0.0139411073, -0.0069442363, 0.1186255440, -0.0550630800, -0.0905579329, 0.3062526286, -0.1128333285, -0.2571310699, 0.1163383424, 0.1104805097, -0.0175968818, 0.0313386545, -0.0827711150, -0.0391340256, 0.2793844938, -0.0537662990, 0.0583140627, 0.2620171010, 0.1480423957, -0.0073379637, 0.1831828952, 0.1447366774, 0.0431458168, 0.1646354049, 0.1613449752, 0.0800386593, 0.0710581243, 0.0602226518, 0.0919862315, -0.0403627641, 0.1251294762, 0.0135357417, -0.0088665821, 0.1552141458, 0.1107601598, 0.0081759738, -0.0216900930, -0.0310749114, 0.3541606963, -0.0221924242, -0.0374611951, 0.8416339755, 0.0515510552, -0.0239139050, -0.0997209623, 0.0555100329, -0.0445690416, 0.0401482210, 0.0332785882, 0.0646362677, -0.0147402817, 0.0085456101, 0.0355439186, -0.1230220944, -0.0827342495, 0.0441970639, 0.0661925897, -0.3701206446, -0.1528801620, 0.1492439210, 0.1829687953, 0.0404889993, 0.0493279472, 0.1412986219, 0.0910678506, -0.0084828855, 0.1574346423, 0.0779477879, -0.1829959005, 0.0504358932, -0.1535315365, -0.1113785282, -0.1739981472, -0.0211389251, 0.0226665158, -0.0804338232, -0.2922653854, -0.0568080917, -0.1013259590, -0.3495234549, 0.0517322719, 0.1071598232, 0.0600954741, -0.0956431925, 0.1099527627, -0.0205118563, -0.1788685471, 0.2770384550, -0.1040482894, -0.1210944578, -0.0156085268, 0.0581338778, -0.1343953162, 0.0292292107, 0.0820705593, -0.0180407520, 0.0631188974, 0.1575924456, -0.0096252114, 0.0071358019, -0.0221840329, -0.0014393606, -0.0776195154, -0.0146111865, 0.1425015628, -0.0758864507, -0.1408987343, -0.1704741120, 0.0498383120, -0.0129819345, -0.1412396431, -0.3988795280, -0.3256404698, -0.3494450152, -0.0326634385, 0.0804552659, 0.0780665651, 0.0123205539, -0.0000318839, 0.0398068801, 0.0791959465, -0.0454133563, 0.2230942100, 0.2437734753, 0.1940026432, -0.0925215855, -0.0803788602, 0.2100634426, 0.0076490305, -0.0887196213, 0.0053876834, 0.0333563350, 0.0089093307, 0.0288513247, 0.0490836650, -0.0031277791, -0.0534352697, 0.0524856113, -0.0142108658, -0.0929593369, 0.5945946574, 0.7049607038, 0.1152038276, 0.1195027307, 0.0083193975, 0.0167953353, -0.0054648691, -0.0153952939, 0.0208033025, 0.0451203212, 0.0230486579, -0.0756352693, -0.0283413697, -0.0053954562, -0.0253026560, -0.0272859447, -0.0870299488, -0.1009957865, -0.3320225477, 0.0577744432, 0.0636376515, -0.0110707721, -0.0459581316, -0.0507067405, -0.0179682113, 0.0690699518, 0.0111541711, 0.0350412726, 0.0098027866, -0.0557346754, -0.0616490096, 0.0584586747, 0.1079479903, 0.0562091246, 0.0997942984, 0.1219207123, -0.0949719772, -0.0989744514, -0.2279090136, 0.0245852005, 0.0210473221, -0.1707919389, 0.0036086985, -0.1011389345, -0.0577488095, 0.0093395598, 0.0081293713, -0.0545984134, 0.0065760119, 0.0011850278, 0.0068648853, 0.0295731425, -0.0894936398, -0.0145264585, 0.0909765735, 0.0174287669, -0.0674651042, -0.1538494825, -0.0188063253, 0.0901649594, -0.0639287904, 0.0059402236, 0.0846864954, -0.0136968503, 0.0512081608, 0.1139065400, 0.0741889551, -0.0318186991, -0.0428528599, 0.0873757303, -0.0350836925, 0.0156147219, -0.0024351880, 0.0325718224, -0.0235399380, 0.0773320496, 0.0414177217, 0.0419098064, -0.0283690840, -0.0875832066, -0.0577698573, 0.1856750250, 0.0297104325, 0.0204041786, 0.0601304136, 0.1580163985, -0.0157320295, 0.0237762257, 0.1025711820, -0.0137480507, 0.1746755689, 0.0661740378, 0.1450309604, 0.0733540356, -0.0611012504, 0.0699045658, 0.0019359182, 0.0347369388, 0.0556053631, 0.0983951986, -0.0646181256, 0.0857303590, 0.1017667055, 0.0210734531, -0.0156495515, 0.1140208691, -0.0903962329, -0.0201709401, -0.1437266320, 0.0307543352, -0.0406503566, 0.0441585667, 0.1371060312, 0.0976964235, -0.0162260570, 0.0873737186, -0.0215591528, -0.1845792830, 0.1691567302, -0.0589904338, 0.0612657890, -0.0657658800, 0.0436690263, 0.0666675642, 0.0530809388, 0.0694556385, 0.1324002594, 0.0192967001, 0.0900398269, -0.0791022852, -0.0925034359, -0.1751215011, 0.0823071003, -0.0557240881, -0.1066450030, 0.1126201451, 0.0896173492, -0.0498040542, 0.0167524740, 0.0119128041, 0.0009586848, 0.0855563879, 0.1132700369, 0.0697879717, 0.2432062626, 0.1351694465, 0.0284510441, 0.1538305730, -0.0681076124, 0.0408496931, 0.1505379677, 0.0511994809, 0.0697746128, 0.1470656246, -0.0577444099, -0.0075311852, -0.0051066340, -0.0319649540, -0.0238424204, 0.2085689604, 0.1113349572, -0.0318708718, 0.5833287239, 0.1695493758, 0.1076828539, 0.0004661577, -0.0276136491, -0.0234983284, 0.0761270151, -0.0629824847, 0.0569265746, 0.0842166469, -0.0334949568, -0.0475410447, 0.1948855221, -0.0773940682, -0.0081847208, -0.0331272446, 0.1110056043, 0.0151502229, -0.0984803066, 0.0263702497, 0.0511151142, -0.1146209985, -0.1148271188, 0.0675256625, 0.0813005939, -0.0182301514, 0.0220980961, 0.1146942601, -0.0421579853, -0.0374851264, -0.0122629507, -0.0184265487, -0.1297385544, 0.0583037287, -0.1039614454, 0.0038556496, 0.1674234718, 0.1054660529, -0.0032920549, -0.1585052907, -0.0372893102, 0.0137521382, -0.0969064906, 0.0555439666, 0.0065525221, -0.0430638343, 0.0356001072, -0.0187996943, 0.0022764525, -0.0581413992, -0.0947316363, 0.1023774967, -0.0428943969, 0.0106764091, -0.2000025660, -0.0436611399, -0.0517703034, -0.0493670851, 0.2269228697, -0.0966528505, -0.0392420851, -0.0597036257, 0.0366466939, 0.0783198699, 0.0528488494, 0.0038996204, -0.0734154657, 0.1329449564, 0.0953656808, 0.0741197616, 0.0906784460, -0.0045101317, 0.0899418592, 0.2684435546, 0.1525495946, 0.0292027276, -0.0611989163, 0.0291355923, -0.0405120142, -0.0003488248, 0.1325512081, -0.1144808978, 0.1507011652, 0.2339184433, -0.0196900722, 0.0294233877, -0.0393301472, 0.0348949879, -0.0266904626, -0.0834394619, -0.0225436874, -0.0744886398, -0.0339137726, 0.0392124914, 0.0130212465, -0.0676170290, -0.0377707519, 0.3118140101, -0.0748525187, 0.2331742346, 0.1308398694, -0.0449947268, 0.0317236148, 0.0208275691, 0.0028265181, 0.1188466474, 0.0311798379, -0.0539461412, 0.1242536455, 0.1976514757, 0.1496556550, 0.1636068076, -0.1374600083, -0.0996736810, 0.1057489887, -0.0659549311, -0.1355019510, 0.0857342929, -0.0805720612, -0.0596883781, -0.0808608308, 0.0269674994, 0.0374266468, 0.0655833185, 0.0699638352, 0.0754322186, 0.2492515892, 0.2002496570, 0.1674634367, 0.0832911506, -0.0047027688, -0.0366455317, 0.0799053609, 0.0793682858, 0.0381175838, 0.2434533834, -0.0475313142, 0.0446346179, 0.0171488523, 0.0111043826, -0.0330489390, 0.1743708253, 0.0616946071, -0.0193852745, 0.5263860226, 0.0423294790, 0.0168904066, 0.0768050477, 0.2788925469, 0.0522807278, -0.0210977439, 0.0310397875, 0.0391559713, 0.1648530066, 0.1310261339, 0.0533659309, 0.2037413269, -0.0291357972, -0.0101922164, -0.0450791046, 0.0648867488, 0.0978139564, -0.0015907706, 0.2058887333, 0.1569789499, -0.0395859554, -0.1321473122, -0.1172862276, -0.0059086643, -0.0038830244, -0.5183278322, 0.0624411255, -0.0451853052, 0.0175370537, -0.0312203988, 0.0455668010, -0.0084340852, 0.0670586750, 0.0489135645, -0.0173615664, 0.0114679094, 0.0919550434, 0.1888237298, -0.0455887616, 0.1090722308, 0.2014518827, 0.0055349297, 0.1116521731, 0.1657558084, -0.0249756575, -0.0143818418, -0.2393735200, -0.0905328467, -0.0261856504, -0.0126308789, -0.0255974289, -0.0887742713, -0.0885386541, 0.0449220054, -0.0244354494, -0.1165773049, 0.0257975999, -0.0589824766, 0.1578157395, 0.0851198137, 0.0737354010, 0.0695491657, -0.0309896860, -0.0132785952, -0.1128434539, -0.0486542918, -0.0345051512, -0.1101382077, -0.2397396415, -0.0600747429, 0.0243986752, -0.1521004587, 0.0641748086, -0.0678454712, -0.0345588848, 0.0831760764, 0.1503252983, 0.0236799661, -0.0405548550, -0.0594119020, 0.0522427447, 0.1608147174, 0.4532268345, -0.0048622219, -0.0069115609, -0.0957585350, -0.0089560384, 0.0471344292, 0.0105364099, -0.0264377017, 0.0665047094, 0.2346421629, 0.0783309415, -0.0167625248, 0.0699891225, 0.1930309236, 0.4958872199, 0.0818765312, 0.1206944212, 0.1523645967, 0.0736639574, 0.1173821762, 0.1030552685, 0.0777781010, -0.1151779592, -0.0551855341, -0.0754302442, -0.2413910180, 0.0541940369, 0.0231190734, 0.1167709306, -0.1580751538, -0.2788015604, -0.0082353801, -0.0332175903, -0.0644578114, 0.0455655530, 0.0229014102, -0.0365415663, -0.0258237179, 0.0913557634, 0.0362708792, 0.0704993233, 0.0885235593, -0.0679178238, 0.2652664483, 0.3912804723, 0.3315054476, -0.0179082789, -0.1100895107, -0.0141330166, -0.0492096357, -0.0515907072, -0.1094221398, 0.2238864601, 0.1193481609, 0.0713854134, 0.0786271617, -0.0768807307, -0.0856323615, 0.0476818755, -0.0517847314, -0.0733600408, 0.6362205148, 0.3072882593, 0.0970406979, 0.0142417289, 0.0220155269, -0.0323311277, -0.0854202881, 0.0386144817, -0.1048276946, -0.0282699503, -0.1775976568, 0.1985795051, 0.1643192619, 0.1509447694, -0.0654029176, 0.0276996456, -0.0256408639, -0.0979009494, 0.1359370649, 0.0829384997, 0.0703326017};
#endif

#endif
