//Numpy array shape [24, 48]
//Min -0.527855396271
//Max 1.081351161003
//Number of zeros 0

#ifndef W13_H_
#define W13_H_

#ifndef __SYNTHESIS__
model_default_t w13[1152];
#else
model_default_t w13[1152] = {-0.0678545833, 0.0111554731, -0.1705939919, -0.0584278516, 0.0826158226, 0.1236696988, -0.1468161941, 0.0465253852, 0.0218277127, 0.3772214651, -0.0425141379, -0.0629764721, 0.1322236955, -0.0249603726, -0.0793819577, 0.0792640150, -0.0243966430, -0.0625544861, 0.0468688644, -0.5278553963, 0.1347697675, 0.0077464320, -0.1521408260, -0.2448764145, 0.5533190370, 1.0813511610, -0.0895635486, -0.0083164452, -0.0196656436, 0.0326829329, -0.2717073858, -0.1557507813, -0.0203937646, -0.1556687802, -0.2819994986, 0.0943693891, -0.0421473458, -0.0329657197, 0.0272140559, -0.0520321690, -0.0781598240, -0.2223582417, 0.1492481083, 0.0601055473, 0.1983849853, -0.0839552283, -0.0172406044, 0.0686507821, -0.1960312277, 0.1253000796, -0.0219817199, -0.0878585428, 0.1007853076, -0.0073201377, -0.1044518948, 0.0380010530, 0.1474442035, -0.0520144515, 0.0132893361, 0.0837844908, 0.1489836574, -0.0721147582, -0.0111563299, 0.1349668354, 0.0437295586, -0.0829660669, 0.1614573002, 0.4293782711, -0.1647041291, 0.1534202248, -0.0543477945, 0.2556981444, -0.0949461609, -0.0120421350, -0.1029149666, 0.0631884187, 0.0036416373, -0.0982353389, 0.1036726460, 0.0107985837, -0.0438069664, -0.1126250774, 0.1983009875, -0.0378046446, 0.2795517147, 0.1021679118, 0.0866280869, -0.1418159753, -0.0196481198, -0.0927675217, 0.0742510110, -0.0939449742, -0.1968683749, 0.0583380647, -0.1083854809, 0.3327777684, 0.2108388543, -0.0736742541, 0.1959308833, -0.0639403686, 0.0372282714, -0.0790502578, -0.0697117075, 0.0628609285, 0.1729711443, -0.0364572406, 0.1063399166, 0.1167788580, 0.1921845973, 0.1149673015, 0.0937603340, -0.0394774601, -0.1624280810, 0.1531558633, 0.1700401008, -0.1284994781, 0.0264800601, -0.0129735274, -0.1445766240, 0.0428282954, -0.1394521296, -0.2443001270, 0.0047817896, 0.0866525248, -0.0476099700, 0.0948866010, -0.0597740822, -0.0239914842, -0.0171053894, 0.1147776097, -0.0759104267, 0.1047998145, 0.0566143170, 0.0266586188, -0.0311992448, -0.0623467118, 0.0400521159, -0.0214561019, -0.0916015431, 0.1159293056, -0.3365375400, 0.0447045676, -0.0122580454, -0.0434481911, -0.0168354493, 0.0275389105, -0.0627812222, 0.1062664688, -0.0571019799, 0.1547212005, 0.0272726305, 0.0056156809, -0.0217406414, 0.2279219031, -0.0344664082, 0.1090057492, 0.1479622126, 0.0624509752, -0.0160566960, 0.1773439646, 0.0277903453, 0.0780808404, 0.0163738839, 0.1671410501, -0.0068259067, 0.0939314961, 0.0202648081, -0.1254896522, 0.1732969284, 0.1692717969, 0.1669568717, -0.0106213968, -0.0406548381, 0.1136899590, -0.0181909278, 0.1422859728, 0.0984277725, 0.0465722866, -0.1306220591, 0.0429761223, 0.0181300677, 0.1093259752, 0.0095275352, 0.2123482823, -0.0653409660, -0.0675560161, 0.0239295550, -0.0911752731, 0.0834851116, -0.1688335985, 0.1220344827, -0.0975726992, -0.0139950300, -0.0460428856, -0.0674854442, 0.0830630511, 0.0425243750, 0.0745080262, -0.1027907878, -0.0926359594, -0.1036967412, 0.0280726776, 0.0623337515, 0.0164188705, 0.0098986225, -0.0308281668, -0.0014520135, 0.0808361694, -0.1111557484, -0.0975333750, -0.0134002157, -0.1453145742, -0.0537756756, -0.0143621517, -0.0646718442, 0.0456006303, -0.0804714859, -0.1302801818, 0.0081947437, -0.0958639011, -0.1435050666, 0.1251315773, -0.1397189349, 0.0122257126, 0.1205711663, -0.0262758043, -0.0083932150, -0.0745425522, 0.0347439498, -0.1168377623, 0.1427164972, -0.1407903582, -0.0675515309, 0.1411455125, -0.0704768449, -0.1217274517, -0.0543664806, -0.0411784574, -0.0201722793, -0.0087551251, -0.0421034470, 0.1511090100, -0.0583719313, 0.0382602438, 0.1196696609, 0.0808819681, 0.1211790591, 0.1351947188, 0.0587198623, 0.0507880263, 0.1111227870, 0.0490768477, -0.0778832585, 0.0699538440, 0.1374276727, 0.1769043803, 0.1533079296, -0.0387410074, 0.0835227743, 0.0749131367, 0.0447909348, -0.0873607174, -0.0634670332, 0.1541570872, -0.0598942637, -0.0865912810, 0.1099344566, -0.1498335004, -0.0352284238, 0.0755532756, 0.1142456532, -0.0791205317, 0.0270743556, -0.0983641148, 0.1076249331, 0.0724275485, 0.2084103078, 0.1394646913, -0.0950886384, -0.0431425795, 0.0800616443, -0.0512090176, 0.1263990700, 0.0782802477, -0.1470955163, -0.1143995970, -0.0767505690, 0.1278710812, 0.1230281368, 0.0482239313, 0.1225093752, 0.1007567868, -0.0918826461, -0.0238956288, -0.0623873733, 0.1584756374, 0.0066878852, 0.1988479644, -0.0060169040, -0.0130635379, 0.1716602445, -0.1731288284, -0.0552144945, 0.0086673750, -0.1981304586, 0.0483677015, 0.1681414247, 0.2126227915, 0.1000811681, -0.1449202150, 0.1810293347, 0.0235388465, -0.0418726541, 0.4566187859, 0.0244084299, 0.1695375890, 0.1507644057, -0.0183465462, -0.0965293422, 0.0978151783, 0.0394372940, 0.1072739884, 0.1325884610, 0.1339405477, 0.0503917821, -0.1383477449, 0.0196635779, 0.0840213522, -0.1096537784, 0.0443612523, 0.1685854644, 0.0499411710, 0.1731227487, 0.1621995866, 0.1771306694, 0.1420297325, 0.1136510745, -0.0061639962, 0.0398080312, -0.0712247714, 0.0847835913, -0.0533809885, -0.1282170415, -0.1058677658, 0.1613184512, 0.1036933661, 0.1394332796, 0.1589312851, -0.0576836020, -0.1313927174, -0.1469581723, -0.2372003496, -0.0143626854, 0.0836609453, 0.0349320993, 0.0029322340, 0.1954326630, -0.1327871680, -0.1460119039, 0.0071841218, -0.1080913022, -0.0249429140, 0.1557569206, 0.0725896060, 0.1584248990, 0.0711131990, -0.0895893946, 0.0695057362, 0.1035222709, -0.0610049106, 0.0551862828, 0.0732776150, -0.0886231884, 0.0913003087, 0.0883642137, 0.0799281076, -0.1084958762, 0.1438129544, 0.0774601474, 0.0418688096, -0.2563044131, 0.2796228528, 0.1297140867, -0.1192874014, 0.0347347744, 0.0374150574, -0.0104666855, 0.0747638047, 0.2034994662, 0.4892430305, 0.0491155759, -0.0319003873, 0.1232827157, 0.0959696919, 0.0656424835, 0.0844613463, 0.0420991294, 0.2705945373, 0.1777184308, 0.1786388904, 0.1515099704, 0.0485351495, 0.0175726041, -0.1030351594, -0.1091687754, 0.3290331364, 0.1997837275, 0.0432419628, 0.0698245764, 0.2316232622, -0.0463829115, -0.0509688966, -0.1107784957, -0.1169127971, 0.2457766235, -0.1060548201, -0.1095400378, -0.0834350139, -0.0090522524, 0.1518481821, -0.3019231260, 0.0391818583, 0.2206979692, 0.0011444524, 0.2615677416, -0.1482350677, -0.1209182292, -0.1648472250, 0.1065234989, 0.0288860612, 0.1123205423, 0.4774004221, 0.1511276364, 0.0114884973, -0.0692878738, 0.1126907319, 0.1007870883, 0.0127504999, -0.0730703324, 0.1281407177, 0.1387428939, 0.0270769522, 0.0367081761, 0.1008676812, 0.1312575191, 0.1845795661, 0.0183536001, -0.1058187708, -0.1274104565, 0.0813051909, -0.1349658370, 0.1368815303, -0.1762157679, 0.0340620950, 0.0953964144, -0.2204342186, 0.1952531785, -0.2432915419, 0.1562543809, -0.1080211103, 0.1124144644, 0.0570744388, 0.0847328901, 0.0628620088, -0.0241221357, 0.0578128099, 0.0882239714, -0.0974628478, -0.4306930304, 0.0767080635, -0.0915286839, 0.1100989059, 0.0807402059, -0.0952662677, 0.0719465241, -0.1148934364, 0.3572962582, -0.0224521738, -0.0426512957, 0.1348927468, 0.0523407720, 0.0421383306, 0.0529323593, -0.1148171499, -0.0180103928, -0.1065819338, 0.0869992599, -0.0084007578, -0.1214995608, 0.0431094356, -0.0931616351, -0.0659728274, -0.0019503080, -0.1215538904, 0.0339282602, 0.0724421814, -0.0244503152, -0.0464832671, -0.0190324448, 0.0333293974, 0.0942843631, 0.0914962888, -0.0765793994, -0.0194153897, -0.0644959435, 0.0699462891, -0.0238997024, -0.1452848017, 0.0274760481, -0.0978441834, -0.0878687426, -0.1202964410, 0.0453938432, -0.0969795138, -0.0777363330, 0.0630030707, 0.0825513452, 0.0785833374, 0.0464010350, -0.0142951841, -0.0002853457, -0.0281749200, 0.0145026986, -0.0252262820, 0.0830754787, -0.0777341351, -0.0943425149, 0.1158562899, 0.1215883493, -0.1261907816, 0.0052031991, 0.1241511852, 0.0432987511, -0.0118507398, -0.1065716371, -0.0926536918, -0.0308626108, 0.4905764759, 0.0216993187, -0.0502785109, 0.0621998981, -0.1108516753, 0.0423531458, 0.0790721700, -0.0008578020, -0.0999086052, 0.0244872011, 0.0145968189, 0.1587359011, 0.1110397056, -0.0221301150, -0.1431499273, 0.1601395607, 0.6328122020, -0.0426280610, 0.1866851449, 0.0933133066, 0.0785401314, -0.1477780342, -0.0583486371, 0.0528037138, 0.1231512576, -0.0074324538, 0.0649546608, -0.1746200472, 0.0534592830, -0.0210929513, 0.1344374269, 0.0176481847, 0.0830649063, -0.0172927305, 0.1426832527, 0.4352282882, -0.0832271874, -0.0959425643, -0.0859822780, -0.0784228146, 0.0209670141, -0.0456757098, -0.0053541306, -0.1582316756, -0.1276893616, 0.1252496094, 0.0096972734, -0.0179013647, 0.3992279172, 0.1026736274, 0.0927356854, -0.0055186409, -0.0163852368, 0.1121730730, 0.0197291598, 0.0071819946, 0.0112618506, -0.0032855272, 0.4249300361, 0.0601732321, -0.1614336669, -0.0547447912, 0.1019394994, -0.2207341045, 0.5293182731, 0.0921177119, -0.0790688321, 0.2039493769, -0.0335930213, 0.0576986261, -0.0198643319, 0.0015912410, -0.1183638945, -0.0524532795, -0.0918754637, 0.0280678310, -0.0881844386, -0.0698910132, -0.0232156236, -0.0771861598, -0.0187929254, -0.0845587179, 0.1805045456, -0.0558626465, 0.0462052152, -0.0337118283, 0.1766388267, -0.1359848231, 0.1130338609, -0.0053429976, -0.0868656337, 0.1326948553, 0.0406075120, 0.1262650043, 0.0120851006, 0.1259701848, -0.1162381768, 0.0268388819, -0.0944057852, 0.0661991537, -0.0593104959, 0.1494635493, 0.0686358139, -0.0352094658, -0.0627149120, 0.0690726340, 0.3082501292, -0.0673301592, 0.0213051364, 0.1520962417, 0.1672161967, -0.2795276642, -0.2523226440, -0.0267290734, -0.1279853433, 0.0829054490, 0.0883747190, 0.0130940368, -0.0997932926, 0.1319502294, -0.0836947113, 0.2145396322, -0.1203141510, 0.5920340419, -0.0289177038, 0.0393723734, -0.1766314507, -0.0404112376, 0.0634812191, 0.0709554031, 0.0644995570, -0.4333740175, 0.1580029577, 0.1300988942, 0.0921419710, -0.0177676957, -0.0736223161, -0.0645149574, 0.1050295308, -0.0760797560, -0.0812929645, 0.0087240813, -0.0856197327, -0.0325836465, -0.0226956289, 0.0406987779, -0.1103227213, 0.0145923607, -0.0344926193, 0.0321566276, 0.0484388135, -0.1351985782, -0.1107182652, 0.0173622686, 0.0282816477, -0.0570483506, -0.1161782742, 0.0307273064, -0.0419292599, -0.0662523881, -0.0376913287, 0.0718465000, -0.0864119679, 0.1098633930, -0.0207135472, 0.0256263223, 0.1296504885, -0.0468622968, -0.0805713758, -0.1213993132, -0.0586086921, -0.0866175145, 0.1255652010, 0.0916276276, 0.1050185114, 0.0388029292, -0.1041735560, 0.0648031682, -0.0766333938, 0.0079067424, 0.1249544919, -0.0330367647, 0.0217427891, 0.0403917842, 0.0243321713, -0.1024883315, 0.1995304972, -0.1532103717, 0.3457761407, -0.1451997161, 0.0270632412, -0.1443806440, 0.1009247750, 0.1182562187, -0.1355635673, -0.0492749214, -0.0689600334, 0.0486939028, 0.0745195448, 0.1765207797, 0.0201570857, 0.0116107212, -0.0488578193, -0.3066988587, -0.0570323654, 0.0899692699, -0.1195277199, -0.1381247342, 0.3720641136, -0.1112917587, 0.0491802245, -0.0673694685, -0.1260439157, 0.0808505267, 0.1545192450, -0.0979954749, -0.1636644304, -0.1822521091, -0.0586962774, 0.0266159624, -0.0142211076, 0.1395000368, 0.0176884849, -0.0144985262, 0.0043415749, -0.1048478931, -0.0345474705, 0.2534992695, 0.0977489501, 0.0077143274, -0.0682972595, -0.0318630449, -0.1392154694, -0.0303888135, -0.1613885611, -0.0265557356, 0.0209014155, 0.0352341458, -0.1116193086, 0.1013613120, -0.0539514571, 0.0935258567, 0.0664680749, 0.0417840742, -0.0374013335, 0.1837797165, -0.0592490695, 0.0850679874, -0.0666231364, 0.0330140106, -0.1604705453, -0.1132954657, 0.1836411506, 0.0576686487, 0.1328342408, -0.3337155879, 0.0096985102, -0.0160995536, -0.1552624702, 0.1935211718, 0.1120794043, 0.0229046941, 0.0153495949, -0.0539459512, 0.0896915123, 0.0512435101, 0.0476535186, -0.1967579126, 0.1215622127, 0.1583192199, -0.1541107744, -0.0825469792, -0.1563458294, 0.1131682694, -0.0228330940, 0.0371702574, 0.1686726213, 0.1848315597, 0.3758422136, 0.0678281561, 0.0164223425, 0.2185270935, -0.0621153452, 0.1073678732, -0.0643789396, -0.0946311876, 0.0493765734, 0.0179720558, -0.0947428718, -0.0568427965, 0.0060862750, 0.0656645745, 0.0711025894, -0.1453377455, -0.1783779860, -0.0952489153, 0.1299149096, 0.0908946395, 0.0042907032, 0.0133689726, -0.0316019319, -0.1326682866, -0.1606449187, 0.0630684122, -0.1235101447, -0.0530103631, 0.2275410146, 0.0238267034, -0.1202165261, 0.0213337094, 0.0441800691, 0.1039791703, 0.0886405334, 0.1926521212, -0.0115414029, -0.3973301351, 0.0655637160, 0.2087382078, -0.0263507087, 0.0879405215, 0.2162744552, -0.0675163791, -0.0001898458, 0.3496796191, 0.1182284877, 0.0412880518, 0.3240223527, -0.0915111452, 0.0235105921, 0.0068016816, 0.1019498706, -0.0558774918, -0.0275992528, 0.0833728611, -0.0339986198, -0.0913661271, -0.1036075875, -0.1025167927, -0.1023709700, 0.0714842901, -0.1053358391, -0.0487368926, 0.1302191764, 0.0861891434, 0.0750924349, -0.0275043603, 0.0874176174, 0.1423489898, 0.0113192331, -0.0955238193, -0.0219679680, -0.0118285641, -0.1159441695, 0.0431481190, -0.0866140723, -0.1184006035, 0.1027968526, -0.0625437200, -0.1217512563, -0.0865663812, -0.1113267019, 0.1018586829, 0.1375067681, -0.0064005069, -0.0176549666, 0.0996217430, -0.0383593887, -0.0730614513, 0.1305771768, -0.1016087905, -0.1293346733, 0.0164790042, 0.0920621082, -0.0816613510, 0.0960728452, 0.0171272457, 0.0582822002, 0.2314818501, -0.0177721884, -0.0341125317, -0.0523049049, 0.1339757591, 0.0965084061, 0.0152513841, 0.1545998305, -0.0204414781, 0.1605361402, 0.1468213648, -0.1284890175, -0.0930745080, -0.1916112602, -0.1056231633, -0.0772773921, 0.1797152609, 0.1194778010, 0.1291818619, -0.0600587390, -0.0428520925, -0.0630781800, 0.1902326792, 0.1457686871, 0.1465454549, 0.1328326464, 0.0282506514, 0.0463016070, 0.0790551528, 0.1787079871, -0.0775891021, 0.0973819271, 0.1106936559, -0.0040132157, 0.1905782372, -0.1416725814, 0.0891926289, -0.0003130727, -0.1599897444, 0.2717526853, 0.0186586063, 0.1047699228, 0.1414401233, 0.0388399810, 0.0412409715, 0.3034371734, 0.0462625474, -0.0999388099, 0.0000749914, 0.0351574719, -0.1328215599, -0.0556230210, -0.1040473729, 0.0692998692, -0.0820181668, 0.4626988173, 0.1189036295, 0.0097809453, 0.1950203925, -0.1800451130, 0.0954746678, -0.0574075691, 0.0741115808, 0.0901103169, 0.1228482053, 0.1252779961, -0.0194394831, -0.1328282058, 0.0009941107, -0.0474932492, -0.0497961938, -0.0961883217, 0.1480314285, 0.0677143037, 0.2642259300, -0.0223019794, -0.1053698882, 0.0462201089, 0.1539952308, 0.0981574953, 0.1119596511, 0.0601145513, 0.1938102543, -0.0854780972, 0.1836572289, 0.0783872306, -0.1907927245, 0.2372280955, 0.1208199412, 0.1877084821, -0.2182082236, 0.0308118034, 0.2543962002, 0.1266104430, -0.1547109187, -0.0224067662, 0.2084852457, -0.0116309840, 0.0890207514, -0.1403185278, 0.0202207305, -0.0423417576, 0.0501023643, 0.0755105242, 0.0237523038, -0.1144850999, -0.0542941988, 0.1865797043, 0.0659206435, 0.0410173610, 0.0026338175, 0.0695956200, 0.0393982567, -0.2454176694, -0.0684823990, 0.0513417237, 0.2185114771, 0.0204523634, -0.2365634590, 0.4215772450, -0.0697596222, 0.0345448218, -0.0507068262, 0.1497564167, 0.1470223218, 0.1362399757, -0.1316772103, -0.0340017974, 0.0656409115, -0.0833377317, 0.0928015932, 0.1352490932, 0.0577097498, -0.0591115691, -0.0984966159, 0.0575512685, 0.0071930159, 0.2361115068, 0.3853244185, 0.0012750264, 0.1549694091, -0.1202221811, -0.1857603341, 0.0579310879, -0.1689642817, -0.0088007553, 0.0598457791, -0.0602861829, 0.0186785292, 0.1467147171, 0.0819818005, 0.0882622376, 0.0055337488, 0.0873257145, 0.0892196819, -0.0956008211, 0.0497122109, 0.0718154982, 0.0290647149, 0.0633545071, 0.0759749115, 0.0596501678, -0.0006000760, 0.1528728902, -0.1098854542, -0.0330433846, -0.0355925187, -0.0439775549, 0.0103842253, -0.0019118993, -0.1586908251, 0.0808531195, 0.0361867882, 0.1194268093, 0.0020232655, -0.0969870538, 0.0792103708, 0.0977412686, 0.0961412266, 0.1306729466, 0.0621302500, -0.0377932191, -0.0615874864, 0.0212809276, -0.0521311238, 0.0307620876, -0.1006488129, -0.1879129857, 0.0049722409, 0.1922017187, -0.1805296987, 0.1554639786, -0.1483042538, -0.0081118550, -0.1074340492, 0.0245059878, 0.0555100851, -0.1289314628, -0.1097166762, 0.4393393397, 0.1586550474, -0.1378576756, -0.1435410976, 0.1471064538, -0.1530689299, 0.1118699908, 0.1311910152, 0.1890682578, 0.0483045727, 0.1293483675, -0.1993151903, -0.0748837963, 0.0492537916, 0.0028133050, 0.3148940504, 0.2596798837, 0.0283994433, -0.0357882045, -0.0723097026, 0.0642664135, 0.2383061349, -0.2832949460, -0.0758071020, -0.1192222759, -0.0548060946, -0.2004939318, 0.1213513762, -0.0524783693, 0.0911606997, 0.0598464310, 0.1677438766, -0.0103554912, -0.0156019833, 0.1705613583, -0.0245812628, -0.0169466510, 0.0307773799, -0.0668678209};
#endif

#endif
